{"learner":{"attributes":{"scikit_learn":"{\"_estimator_type\": \"classifier\"}"},"feature_names":["HT_tau","mZ_veto","met_met","m_l1l2","dR_t1t2","HT","m_t1t2","tau2_pt","dR_l1t","tau1_decayMode","m_l1t","m_l2t1","tau1_charge","tau2_decayMode","l2_z0sintheta","tau2_eta","m_l2t2","dR_t1t2_l1","l1_z0sintheta","dR_l1t2"],"feature_types":[],"gradient_booster":{"model":{"cats":{"enc":[],"feature_segments":[],"sorted_idx":[]},"gbtree_model_param":{"num_parallel_tree":"1","num_trees":"345"},"iteration_indptr":[0,1,2,3,4,5,6,7,8,9,10,11,12,13,14,15,16,17,18,19,20,21,22,23,24,25,26,27,28,29,30,31,32,33,34,35,36,37,38,39,40,41,42,43,44,45,46,47,48,49,50,51,52,53,54,55,56,57,58,59,60,61,62,63,64,65,66,67,68,69,70,71,72,73,74,75,76,77,78,79,80,81,82,83,84,85,86,87,88,89,90,91,92,93,94,95,96,97,98,99,100,101,102,103,104,105,106,107,108,109,110,111,112,113,114,115,116,117,118,119,120,121,122,123,124,125,126,127,128,129,130,131,132,133,134,135,136,137,138,139,140,141,142,143,144,145,146,147,148,149,150,151,152,153,154,155,156,157,158,159,160,161,162,163,164,165,166,167,168,169,170,171,172,173,174,175,176,177,178,179,180,181,182,183,184,185,186,187,188,189,190,191,192,193,194,195,196,197,198,199,200,201,202,203,204,205,206,207,208,209,210,211,212,213,214,215,216,217,218,219,220,221,222,223,224,225,226,227,228,229,230,231,232,233,234,235,236,237,238,239,240,241,242,243,244,245,246,247,248,249,250,251,252,253,254,255,256,257,258,259,260,261,262,263,264,265,266,267,268,269,270,271,272,273,274,275,276,277,278,279,280,281,282,283,284,285,286,287,288,289,290,291,292,293,294,295,296,297,298,299,300,301,302,303,304,305,306,307,308,309,310,311,312,313,314,315,316,317,318,319,320,321,322,323,324,325,326,327,328,329,330,331,332,333,334,335,336,337,338,339,340,341,342,343,344,345],"tree_info":[0,0,0,0,0,0,0,0,0,0,0,0,0,0,0,0,0,0,0,0,0,0,0,0,0,0,0,0,0,0,0,0,0,0,0,0,0,0,0,0,0,0,0,0,0,0,0,0,0,0,0,0,0,0,0,0,0,0,0,0,0,0,0,0,0,0,0,0,0,0,0,0,0,0,0,0,0,0,0,0,0,0,0,0,0,0,0,0,0,0,0,0,0,0,0,0,0,0,0,0,0,0,0,0,0,0,0,0,0,0,0,0,0,0,0,0,0,0,0,0,0,0,0,0,0,0,0,0,0,0,0,0,0,0,0,0,0,0,0,0,0,0,0,0,0,0,0,0,0,0,0,0,0,0,0,0,0,0,0,0,0,0,0,0,0,0,0,0,0,0,0,0,0,0,0,0,0,0,0,0,0,0,0,0,0,0,0,0,0,0,0,0,0,0,0,0,0,0,0,0,0,0,0,0,0,0,0,0,0,0,0,0,0,0,0,0,0,0,0,0,0,0,0,0,0,0,0,0,0,0,0,0,0,0,0,0,0,0,0,0,0,0,0,0,0,0,0,0,0,0,0,0,0,0,0,0,0,0,0,0,0,0,0,0,0,0,0,0,0,0,0,0,0,0,0,0,0,0,0,0,0,0,0,0,0,0,0,0,0,0,0,0,0,0,0,0,0,0,0,0,0,0,0,0,0,0,0,0,0,0,0,0,0,0,0,0,0,0,0,0,0,0,0,0,0,0,0,0,0,0,0,0,0,0,0,0,0,0,0,0,0,0,0,0,0],"trees":[{"base_weights":[7.1694707E-3,-1.2754793E0,1.2012901E0,-1.6421766E0,-5.7415617E-1,3.8717175E-1,1.5477728E0,-1.8201534E0,-1.296009E0,-1.1114953E0,1.19642355E-1,-4.133152E-1,1.0121617E0,1.6425444E0,-8.6412065E-2,-4.0526134E-1,-1.8236039E0,-1.5747333E0,-7.953654E-1,-1.2036566E0,8.1575155E-2,-5.8048606E-1,5.815847E-1,-1.1391428E0,8.6666934E-2,4.4008225E-1,1.2746212E0,1.0895787E0,1.7373695E0,-1.0364658E0,1.0583318E0,-3.199962E-2,6.9528925E-3,-9.6688E-2,-1.598806E0,-1.5964924E0,-2.240961E-1,-1.1894075E0,-2.9328215E-1,-1.4452121E0,-9.093147E-1,-7.375234E-1,3.4824798E-1,-8.3339846E-1,1.7439349E-1,8.661609E-1,-8.0724245E-1,-1.2559632E0,-3.8512477E-1,3.2982737E-1,-1.0347178E0,-9.251685E-2,7.3959965E-1,1.352931E0,-7.609598E-1,-2.2835377E-1,1.3197232E0,-1.1658805E-1,1.7542361E0,-1.5797255E0,-5.6947414E-2,1.1621593E0,-2.975118E-1,-1.6720369E0,-8.201505E-1,-4.4999206E-3,-1.6015798E0,-4.8370755E-1,2.0649275E-2,-1.4987012E0,-7.125873E-1,-6.980793E-1,5.3294474E-1,-1.6333464E0,-1.0984197E0,-1.1195345E0,1.6542226E-1,-8.471366E-1,4.232564E-3,-2.7089888E-1,5.316295E-1,-6.1687548E-2,-1.239384E0,-3.8892376E-1,6.271949E-1,2.2992331E-1,1.3242213E0,2.4337889E-1,-1.4207667E0,-1.2949297E0,1.5421207E-1,-9.6911675E-1,2.2824174E-1,-6.07804E-1,7.100437E-1,-3.542956E-1,-1.2291391E0,-5.6615746E-1,2.7319923E-1,3.6663547E-1,1.0366467E0,1.4203182E0,2.259365E-1,-5.0514635E-2,-9.8289095E-2,-7.674573E-1,5.255082E-1,7.3778784E-1,1.5962255E0,7.523261E-1,-9.165936E-1,1.4412165E0,1.8373924E0,-1.655647E0,1.0245671E-2,4.02067E-1,-8.5196507E-1,1.3170048E0,3.4868369E-1,-2.0406174E-2,3.8091324E-3,-8.672629E-2,-5.7891603E-3,-5.535533E-2,-5.324014E-4,-8.289273E-2,-1.0488614E-2,-3.238222E-2,1.5107017E-3,-8.240854E-2,-1.8362515E-2,2.3347521E-2,-4.1011076E-2,8.737945E-3,-4.993828E-2,-3.3807855E-2,4.99211E-2,2.7168735E-3,-8.5171714E-2,-3.078045E-2,-6.8563454E-2,-4.3213204E-2,-8.8205464E-2,2.1568855E-2,-2.030093E-2,-3.3061174E-3,-4.7765914E-2,-2.1759342E-2,5.7491837E-3,3.9854236E-2,3.5984877E-3,1.0671162E-2,-5.0572876E-2,9.420415E-3,-7.304987E-2,-2.7179968E-2,1.5605781E-2,-1.5414991E-2,4.918836E-2,2.4324093E-2,-5.832619E-2,-1.3109324E-2,7.1517415E-2,-2.5268923E-2,3.482624E-2,1.0257963E-2,-8.066669E-2,-2.358293E-2,-6.837333E-2,-4.4460827E-3,1.515588E-2,-5.4537337E-2,1.2565497E-3,2.183151E-2,-2.2601327E-2,1.0447681E-3,-4.979285E-2,4.459053E-2,-3.052008E-2,1.0027385E-2,-4.287806E-2,-6.5798774E-2,-4.3169837E-3,-3.7680164E-2,2.1710891E-2,2.237267E-2,-2.7896926E-2,-3.401989E-2,2.6542554E-2,5.7946134E-2,6.0215467E-3,4.8295073E-2,7.9290435E-2,-1.9557104E-2,3.3686474E-2,7.2299466E-3,-1.4632523E-2,-5.3923998E-2,6.148676E-3,3.673565E-2,-1.2055599E-2,-1.2709832E-2,4.8752178E-2,-1.1406821E-2,8.415395E-2,-4.126573E-4,4.34617E-2,-5.8746483E-2,1.52549455E-2,7.9653084E-2,1.8186886E-2,1.52932815E-2,9.5740736E-2,-8.662834E-2,-7.7481503E-3,-4.289027E-3,4.8625986E-3,-2.0127557E-2,3.839694E-2,-4.7531135E-2,-2.6139768E-3,-3.8946536E-3,7.147734E-2,-2.578413E-2,4.0613823E-2],"categories":[],"categories_nodes":[],"categories_segments":[],"categories_sizes":[],"default_left":[0,0,0,0,0,0,0,0,0,0,0,0,0,0,0,0,0,0,0,0,0,0,0,0,0,0,0,0,0,0,0,0,0,0,0,0,0,0,0,0,0,0,0,0,0,0,0,0,0,0,0,0,0,0,0,0,0,0,0,0,0,0,0,0,0,0,0,0,0,0,0,0,0,0,0,0,0,0,0,0,0,0,0,0,0,0,0,0,0,0,0,0,0,0,0,0,0,0,0,0,0,0,0,0,0,0,0,0,0,0,0,0,0,0,0,0,0,0,0,0,0,0,0,0,0,0,0,0,0,0,0,0,0,0,0,0,0,0,0,0,0,0,0,0,0,0,0,0,0,0,0,0,0,0,0,0,0,0,0,0,0,0,0,0,0,0,0,0,0,0,0,0,0,0,0,0,0,0,0,0,0,0,0,0,0,0,0,0,0,0,0,0,0,0,0,0,0,0,0,0,0,0,0,0,0,0,0,0,0,0,0,0,0,0,0,0,0,0,0,0,0,0,0,0,0],"id":0,"left_children":[1,3,5,7,9,11,13,15,17,19,21,23,25,27,29,31,33,35,37,39,41,43,45,47,49,51,53,55,57,59,61,-1,-1,-1,63,65,67,69,71,73,75,77,79,81,83,85,87,89,91,93,95,97,99,101,103,105,107,109,111,113,115,117,119,121,123,-1,125,127,-1,129,131,133,135,137,139,141,143,145,-1,147,149,151,153,155,157,159,161,163,165,167,169,171,173,175,177,179,181,183,185,187,189,191,193,-1,195,197,199,201,203,205,207,209,211,213,215,217,219,221,223,-1,-1,-1,-1,-1,-1,-1,-1,-1,-1,-1,-1,-1,-1,-1,-1,-1,-1,-1,-1,-1,-1,-1,-1,-1,-1,-1,-1,-1,-1,-1,-1,-1,-1,-1,-1,-1,-1,-1,-1,-1,-1,-1,-1,-1,-1,-1,-1,-1,-1,-1,-1,-1,-1,-1,-1,-1,-1,-1,-1,-1,-1,-1,-1,-1,-1,-1,-1,-1,-1,-1,-1,-1,-1,-1,-1,-1,-1,-1,-1,-1,-1,-1,-1,-1,-1,-1,-1,-1,-1,-1,-1,-1,-1,-1,-1,-1,-1,-1,-1,-1,-1,-1,-1,-1,-1],"loss_changes":[7.395377E4,5.95409E3,7.032535E3,8.588047E2,3.0042415E3,3.772315E3,2.7196367E3,2.3167969E1,6.967822E2,5.0234814E2,1.1576184E3,1.2074734E3,6.1536426E2,8.031367E2,1.1188447E3,1.0858667E1,3.3398438E0,8.6694336E1,3.7709924E2,2.5405908E2,8.708226E1,2.772546E2,8.747822E2,1.0263806E2,5.5632074E2,2.229426E2,4.948081E2,7.743552E2,4.4755078E2,2.9518787E2,7.785889E1,0E0,0E0,0E0,6.569141E1,2.0601562E1,2.1900604E1,1.23825806E2,3.1761945E2,8.4944336E1,4.567611E2,1.1302444E1,3.8325733E1,3.3383258E2,1.0704852E2,5.148248E2,2.594646E2,7.058862E1,9.07417E1,6.093629E2,3.307309E1,9.69161E1,8.5287384E1,2.0043506E2,1.5181511E1,1.7817603E2,3.049641E2,1.3481065E2,2.7152344E2,4.3961E1,9.8000244E1,3.970105E1,3.2137747E0,1.1799316E1,4.8221313E1,0E0,1.8427734E0,6.6496525E0,0E0,4.9757202E1,5.9282394E1,1.5154987E2,1.8618353E2,3.8642822E1,7.593762E1,2.2861304E2,5.5838097E1,3.4265823E0,0E0,6.7977695E0,2.45186E1,1.0708025E2,1.8311914E2,2.3865396E1,7.827579E1,2.7918262E2,1.1078369E2,6.543406E1,6.708411E1,6.0408936E0,2.9536057E0,1.1665047E1,2.4676357E1,1.12390884E2,2.5699957E2,3.9413074E1,1.0009827E1,4.95112E1,4.991561E1,7.925616E1,3.2644257E1,9.585742E1,5.9669403E1,0E0,4.473937E0,6.544798E1,3.2369846E1,1.6129703E2,9.704761E1,6.689354E0,3.8016365E1,3.1957227E2,2.4509375E2,2.1696777E0,6.6884404E-1,5.6810516E1,3.6997986E0,3.6803467E1,5.7296967E1,0E0,0E0,0E0,0E0,0E0,0E0,0E0,0E0,0E0,0E0,0E0,0E0,0E0,0E0,0E0,0E0,0E0,0E0,0E0,0E0,0E0,0E0,0E0,0E0,0E0,0E0,0E0,0E0,0E0,0E0,0E0,0E0,0E0,0E0,0E0,0E0,0E0,0E0,0E0,0E0,0E0,0E0,0E0,0E0,0E0,0E0,0E0,0E0,0E0,0E0,0E0,0E0,0E0,0E0,0E0,0E0,0E0,0E0,0E0,0E0,0E0,0E0,0E0,0E0,0E0,0E0,0E0,0E0,0E0,0E0,0E0,0E0,0E0,0E0,0E0,0E0,0E0,0E0,0E0,0E0,0E0,0E0,0E0,0E0,0E0,0E0,0E0,0E0,0E0,0E0,0E0,0E0,0E0,0E0,0E0,0E0,0E0,0E0,0E0,0E0,0E0,0E0,0E0,0E0,0E0,0E0],"parents":[2147483647,0,0,1,1,2,2,3,3,4,4,5,5,6,6,7,7,8,8,9,9,10,10,11,11,12,12,13,13,14,14,15,15,16,16,17,17,18,18,19,19,20,20,21,21,22,22,23,23,24,24,25,25,26,26,27,27,28,28,29,29,30,30,34,34,35,35,36,36,37,37,38,38,39,39,40,40,41,41,42,42,43,43,44,44,45,45,46,46,47,47,48,48,49,49,50,50,51,51,52,52,53,53,54,54,55,55,56,56,57,57,58,58,59,59,60,60,61,61,62,62,63,63,64,64,66,66,67,67,69,69,70,70,71,71,72,72,73,73,74,74,75,75,76,76,77,77,79,79,80,80,81,81,82,82,83,83,84,84,85,85,86,86,87,87,88,88,89,89,90,90,91,91,92,92,93,93,94,94,95,95,96,96,97,97,98,98,99,99,100,100,101,101,102,102,104,104,105,105,106,106,107,107,108,108,109,109,110,110,111,111,112,112,113,113,114,114,115,115,116,116,117,117,118,118],"right_children":[2,4,6,8,10,12,14,16,18,20,22,24,26,28,30,32,34,36,38,40,42,44,46,48,50,52,54,56,58,60,62,-1,-1,-1,64,66,68,70,72,74,76,78,80,82,84,86,88,90,92,94,96,98,100,102,104,106,108,110,112,114,116,118,120,122,124,-1,126,128,-1,130,132,134,136,138,140,142,144,146,-1,148,150,152,154,156,158,160,162,164,166,168,170,172,174,176,178,180,182,184,186,188,190,192,194,-1,196,198,200,202,204,206,208,210,212,214,216,218,220,222,224,-1,-1,-1,-1,-1,-1,-1,-1,-1,-1,-1,-1,-1,-1,-1,-1,-1,-1,-1,-1,-1,-1,-1,-1,-1,-1,-1,-1,-1,-1,-1,-1,-1,-1,-1,-1,-1,-1,-1,-1,-1,-1,-1,-1,-1,-1,-1,-1,-1,-1,-1,-1,-1,-1,-1,-1,-1,-1,-1,-1,-1,-1,-1,-1,-1,-1,-1,-1,-1,-1,-1,-1,-1,-1,-1,-1,-1,-1,-1,-1,-1,-1,-1,-1,-1,-1,-1,-1,-1,-1,-1,-1,-1,-1,-1,-1,-1,-1,-1,-1,-1,-1,-1,-1,-1,-1],"split_conditions":[2.4310233E5,1.9320055E5,2.7141525E4,1.6298081E5,2.7029959E4,4.8764562E4,3.642926E0,-1.6806948E-1,2.6395092E4,6.57753E4,2.6239664E4,5.841004E4,6.3356414E4,2.9422275E4,3.8476066E4,1.4927441E0,1.5151566E5,6.455444E4,2.4058336E4,3.1517555E4,3.737469E4,3.1269005E-1,1.2131116E5,4.153188E4,1.2222782E5,6.982171E4,4.0420074E0,1.9577577E0,2.7062564E4,1E0,4.9554358E0,-3.199962E-2,6.9528925E-3,-9.6688E-2,3.0852496E4,-1.4450139E-1,2.3381385E4,1.7465756E0,3.2424346E4,6.1638105E4,2.4785773E4,2.340209E5,1.7023445E0,-3.903154E-1,3.3575848E4,3.225337E4,2.7694144E0,8.150478E-2,5.338413E4,6.5011055E4,2.0255456E0,2.2060475E4,3.4510112E5,1.3254155E5,6.90739E4,3.2370122E5,3.753683E4,3E0,3.3364824E4,2E0,4.4509335E0,1.1756551E5,3.753683E4,1.1693951E-1,1.869544E4,-4.4999206E-3,1.5921466E-1,1.8424978E5,2.0649275E-2,2E0,1.9182181E0,-1.0680946E-2,1.3618731E0,-1.1094123E-1,8.073398E4,1.9749836E0,3.2437806E0,-1.2475E-2,4.232564E-3,2.2098355E0,2E0,3.9241786E0,-1.3480514E-2,2.3276906E5,6.3746582E4,4.137343E0,4.2286895E4,3.404356E4,2.3993518E0,-7.156209E-2,2.282429E0,2.4863846E4,3.3739626E0,2.1713958E0,3.642926E0,1.1865745E5,2.6160863E4,4.8717402E-2,3.5208197E0,1.0822499E0,3.2537322E0,2.2343202E0,6.90739E4,-5.0514635E-2,2.1665967E-3,2.2728014E0,1.08002484E5,5.8405395E4,3.324636E4,2.8297956E5,3.4937456E5,1.2495607E5,6.1380696E-1,3.3191073E0,3.091713E5,3.2424346E4,3E0,5.0115676E4,3.5953227E4,-2.0406174E-2,3.8091324E-3,-8.672629E-2,-5.7891603E-3,-5.535533E-2,-5.324014E-4,-8.289273E-2,-1.0488614E-2,-3.238222E-2,1.5107017E-3,-8.240854E-2,-1.8362515E-2,2.3347521E-2,-4.1011076E-2,8.737945E-3,-4.993828E-2,-3.3807855E-2,4.99211E-2,2.7168735E-3,-8.5171714E-2,-3.078045E-2,-6.8563454E-2,-4.3213204E-2,-8.8205464E-2,2.1568855E-2,-2.030093E-2,-3.3061174E-3,-4.7765914E-2,-2.1759342E-2,5.7491837E-3,3.9854236E-2,3.5984877E-3,1.0671162E-2,-5.0572876E-2,9.420415E-3,-7.304987E-2,-2.7179968E-2,1.5605781E-2,-1.5414991E-2,4.918836E-2,2.4324093E-2,-5.832619E-2,-1.3109324E-2,7.1517415E-2,-2.5268923E-2,3.482624E-2,1.0257963E-2,-8.066669E-2,-2.358293E-2,-6.837333E-2,-4.4460827E-3,1.515588E-2,-5.4537337E-2,1.2565497E-3,2.183151E-2,-2.2601327E-2,1.0447681E-3,-4.979285E-2,4.459053E-2,-3.052008E-2,1.0027385E-2,-4.287806E-2,-6.5798774E-2,-4.3169837E-3,-3.7680164E-2,2.1710891E-2,2.237267E-2,-2.7896926E-2,-3.401989E-2,2.6542554E-2,5.7946134E-2,6.0215467E-3,4.8295073E-2,7.9290435E-2,-1.9557104E-2,3.3686474E-2,7.2299466E-3,-1.4632523E-2,-5.3923998E-2,6.148676E-3,3.673565E-2,-1.2055599E-2,-1.2709832E-2,4.8752178E-2,-1.1406821E-2,8.415395E-2,-4.126573E-4,4.34617E-2,-5.8746483E-2,1.52549455E-2,7.9653084E-2,1.8186886E-2,1.52932815E-2,9.5740736E-2,-8.662834E-2,-7.7481503E-3,-4.289027E-3,4.8625986E-3,-2.0127557E-2,3.839694E-2,-4.7531135E-2,-2.6139768E-3,-3.8946536E-3,7.147734E-2,-2.578413E-2,4.0613823E-2],"split_indices":[5,5,7,5,7,2,17,14,7,2,2,6,11,2,2,8,5,2,2,2,6,15,6,2,6,2,17,17,6,13,17,0,0,0,7,14,7,8,7,6,7,5,17,15,7,7,19,14,11,11,19,7,5,6,2,5,7,13,7,9,17,6,7,14,2,0,14,5,0,13,19,14,19,14,6,15,17,14,0,19,9,17,14,5,10,17,6,7,17,14,8,7,17,19,17,11,7,14,17,17,17,17,2,0,14,19,10,11,10,5,5,6,17,8,5,7,9,6,7,0,0,0,0,0,0,0,0,0,0,0,0,0,0,0,0,0,0,0,0,0,0,0,0,0,0,0,0,0,0,0,0,0,0,0,0,0,0,0,0,0,0,0,0,0,0,0,0,0,0,0,0,0,0,0,0,0,0,0,0,0,0,0,0,0,0,0,0,0,0,0,0,0,0,0,0,0,0,0,0,0,0,0,0,0,0,0,0,0,0,0,0,0,0,0,0,0,0,0,0,0,0,0,0,0,0],"split_type":[0,0,0,0,0,0,0,0,0,0,0,0,0,0,0,0,0,0,0,0,0,0,0,0,0,0,0,0,0,0,0,0,0,0,0,0,0,0,0,0,0,0,0,0,0,0,0,0,0,0,0,0,0,0,0,0,0,0,0,0,0,0,0,0,0,0,0,0,0,0,0,0,0,0,0,0,0,0,0,0,0,0,0,0,0,0,0,0,0,0,0,0,0,0,0,0,0,0,0,0,0,0,0,0,0,0,0,0,0,0,0,0,0,0,0,0,0,0,0,0,0,0,0,0,0,0,0,0,0,0,0,0,0,0,0,0,0,0,0,0,0,0,0,0,0,0,0,0,0,0,0,0,0,0,0,0,0,0,0,0,0,0,0,0,0,0,0,0,0,0,0,0,0,0,0,0,0,0,0,0,0,0,0,0,0,0,0,0,0,0,0,0,0,0,0,0,0,0,0,0,0,0,0,0,0,0,0,0,0,0,0,0,0,0,0,0,0,0,0,0,0,0,0,0,0],"sum_hessian":[4.8214727E4,2.3244543E4,2.4970182E4,1.5233133E4,8.0114106E3,7.47646E3,1.7493723E4,9.963059E3,5.2700737E3,4.5030015E3,3.5084092E3,3.2831506E3,4.193309E3,1.6534646E4,9.5907526E2,3.4235394E1,9.928823E3,3.3375322E3,1.9325414E3,4.179815E3,3.231867E2,1.3911115E3,2.1172979E3,1.3210396E3,1.9621112E3,1.3479861E3,2.845323E3,2.4838105E3,1.4050836E4,5.258991E2,4.3317615E2,2.0854015E1,1.3381376E1,7.9771367E3,1.9516866E3,3.2784011E3,5.9131237E1,1.0561597E3,8.7638165E2,2.2212607E3,1.9585541E3,6.433209E1,2.588546E2,1.0392997E3,3.5181183E2,1.7680695E3,3.4922836E2,1.1238291E3,1.9721039E2,1.63259E3,3.2952118E2,4.938327E2,8.541534E2,2.7511206E3,9.420245E1,3.692951E2,2.1145156E3,1.2482696E2,1.3926009E4,3.2460736E2,2.0129175E2,4.0696753E2,2.6208607E1,1.7475311E3,2.0415552E2,1.3124528E1,3.2652764E3,4.7254528E1,1.1876708E1,5.955201E2,4.606396E2,5.9181305E2,2.8456857E2,1.3566019E3,8.646589E2,1.6369241E3,3.2162994E2,5.5708317E1,8.623772E0,5.536589E1,2.0348871E2,3.7205304E2,6.6724664E2,1.5895453E2,1.9285728E2,7.6190436E2,1.0061651E3,1.3646703E2,2.1276134E2,1.0963693E3,2.7459887E1,9.071697E1,1.06493416E2,4.650322E2,1.1675577E3,9.499121E1,2.3452998E2,2.0688351E2,2.8694916E2,4.130508E2,4.4110257E2,2.5873818E3,1.6373868E2,5.8553547E1,3.5648907E1,2.149525E2,1.543426E2,7.220753E2,1.3924402E3,6.082743E1,6.3999527E1,3.056522E3,1.0869487E4,3.0844617E2,1.6161198E1,1.3848337E2,6.2808388E1,3.2384845E2,8.3119064E1,1.9002905E1,7.205701E0,1.737551E3,9.980152E0,1.4725832E2,5.6897205E1,3.2535444E3,1.1732052E1,3.0930058E1,1.632447E1,5.365882E2,5.893192E1,1.970297E1,4.409366E2,1.4294965E2,4.4886343E2,7.1352295E1,2.132163E2,1.1352483E1,1.3452494E3,3.094632E2,5.551957E2,1.1614747E3,4.7544934E2,2.27628E2,9.400193E1,1.0710542E1,4.4997776E1,3.7201084E1,1.8164806E1,1.1866501E2,8.482371E1,3.0866232E2,6.3390713E1,7.278548E1,5.944612E2,1.395366E2,1.9417927E1,5.084063E1,1.4201666E2,6.6643884E2,9.5465485E1,3.2772865E1,9.733922E2,4.878926E1,8.767776E1,1.5851808E1,1.9690953E2,5.5407692E1,1.0409615E3,1.4923139E1,1.2536748E1,8.145586E1,9.261113E0,9.224012E1,1.4253296E1,1.8006366E2,2.8496854E2,1.055106E3,1.1245177E2,5.3659416E1,4.1331795E1,2.2204283E2,1.2487143E1,1.8527782E2,2.1605696E1,2.5336543E2,3.358373E1,3.6701885E1,3.763489E2,3.9687286E2,4.422972E1,5.539926E2,2.0333893E3,6.929773E1,9.444095E1,1.9267334E1,1.6381573E1,1.5918776E2,5.576474E1,1.2577802E2,2.8564579E1,1.23764404E2,5.983109E2,2.1022842E1,1.3714174E3,9.672417E0,5.1155014E1,5.5960163E1,8.039365E0,2.7851108E3,2.71411E2,1.166421E2,1.0752845E4,3.002994E2,8.146774E0,7.818359E0,8.342838E0,4.0218876E1,9.826449E1,5.316056E1,9.647826E0,1.4544025E1,3.0930444E2,2.6625883E1,5.649318E1],"tree_param":{"num_deleted":"0","num_feature":"20","num_nodes":"225","size_leaf_vector":"1"}},{"base_weights":[1.9266022E-2,-1.371052E0,1.261612E0,-1.6137581E0,-4.612601E-1,1.5139248E0,-5.284794E-1,-1.7718587E0,-1.2822964E0,-9.990331E-1,2.1655431E-1,7.667716E-1,1.6816314E0,-9.5776796E-1,8.1402904E-1,-1.7734563E0,-5.4034833E-3,-8.54132E-1,-1.6676792E0,-4.7155488E-1,-1.2861503E0,5.1096636E-1,-8.1212366E-1,1.1178477E0,-1.4596433E-2,1.7597127E0,1.2224855E0,-1.3964405E0,-4.4662827E-1,1.1589931E0,-4.7898805E-1,-1.8251003E0,-1.5932425E0,-1.2746218E0,-4.6319658E-1,-1.6737759E0,7.940498E-3,-3.5804432E-2,-1.1441716E0,-9.517107E-1,-1.5256054E0,9.6949834E-1,-1.5473358E-1,9.573521E-2,-9.519249E-1,4.5999947E-1,1.4060311E0,3.6672154E-1,-7.021388E-1,5.768081E-1,1.7839104E0,1.5117793E0,7.319689E-1,-1.5419797E0,-1.339247E-1,-1.010644E0,8.1853345E-2,-8.3704497E-4,1.3564417E0,1.5983109E-1,-7.858852E-1,-1.1694668E-2,-9.439224E-2,-1.2520124E0,-8.9368634E-2,-1.3881602E0,-4.5162556E-1,2.2152543E-1,-1.0401542E0,-8.624888E-3,-8.659991E-2,-5.890014E-1,3.5756266E-1,-7.420954E-2,-1.2019224E0,-1.1739457E0,-4.3471333E-1,-2.0553629E-1,-1.560426E0,2.6334968E-1,1.1960154E0,3.0651322E-1,-5.9432465E-1,-3.6694095E-1,4.1020155E-1,2.0760948E-2,-9.987417E-1,-8.275563E-1,5.957968E-1,1.0483774E0,1.5454996E0,-2.2480668E-1,8.2861286E-1,1.7445152E-1,-1.3051589E0,-2.2884719E-1,8.639499E-1,1.8340971E0,1.3992535E0,1.5460236E0,-3.4953173E-2,1.272361E0,-6.1693096E-1,2.490194E-2,-1.5955802E0,-6.21291E-1,5.0901014E-1,1.1374389E-2,-1.0553505E0,6.1645985E-1,-7.91955E-1,1.7393133E-1,-2.1096855E-2,3.482969E-1,1.4446297E0,3.9156342E-1,-1.9392675E-2,1.5246292E-2,-9.6924376E-1,-7.041846E-2,-3.5951074E-2,1.2692757E-4,-7.342415E-2,-4.5827366E-2,-4.9696574E-3,3.204537E-2,-2.109172E-2,-4.9284273E-3,-5.9593696E-2,-3.5391837E-2,1.1604631E-2,-1.6595336E-2,3.4449786E-2,-1.5686434E-2,8.975466E-3,-6.6804074E-2,-2.1096054E-2,-6.2298905E-2,7.3682102E-3,-3.3371557E-2,2.2271838E-2,8.791761E-3,-2.4109855E-2,-1.2622929E-2,-8.237128E-2,-1.4700873E-2,2.9848296E-2,7.4113025E-3,6.631722E-2,3.1426176E-2,-2.0088024E-2,1.1017035E-2,-3.8496144E-2,-1.6074917E-4,-2.1765133E-2,-1.5949361E-3,2.5547173E-2,-7.0177517E-3,8.514692E-3,-2.9029824E-2,-6.408405E-2,1.01599265E-2,-5.1694218E-2,4.8751783E-2,-3.9006148E-3,-2.4733618E-3,5.7205528E-2,8.0283254E-2,7.6063885E-4,-2.7452087E-2,5.955383E-3,4.964663E-2,8.765167E-3,2.4198148E-2,-2.633385E-2,7.65119E-3,-7.333676E-2,2.0515231E-2,-3.4013893E-2,6.0048416E-2,1.4169648E-2,9.481659E-2,8.169543E-3,7.808943E-2,3.6008086E-2,8.038788E-2,-5.940914E-3,1.748777E-2,-2.0988813E-2,7.0903294E-2,3.932301E-3,-1.7179674E-3,-5.0255142E-2,-2.0548278E-2,-8.637967E-2,5.977185E-3,-4.0235415E-2,3.770333E-2,-1.7749913E-2,-5.973822E-2,-9.280714E-3,4.5971565E-2,-2.5725516E-2,-5.150877E-2,1.2151153E-3,-9.173058E-3,1.8758377E-2,3.682793E-2,-2.692996E-2,7.605364E-2,-1.3854052E-3,-4.576304E-3,2.5380516E-2,-3.6223375E-3,-5.5263653E-2],"categories":[],"categories_nodes":[],"categories_segments":[],"categories_sizes":[],"default_left":[0,0,0,0,0,0,0,0,0,0,0,0,0,0,0,0,0,0,0,0,0,0,0,0,0,0,0,0,0,0,0,0,0,0,0,0,0,0,0,0,0,0,0,0,0,0,0,0,0,0,0,0,0,0,0,0,0,0,0,0,0,0,0,0,0,0,0,0,0,0,0,0,0,0,0,0,0,0,0,0,0,0,0,0,0,0,0,0,0,0,0,0,0,0,0,0,0,0,0,0,0,0,0,0,0,0,0,0,0,0,0,0,0,0,0,0,0,0,0,0,0,0,0,0,0,0,0,0,0,0,0,0,0,0,0,0,0,0,0,0,0,0,0,0,0,0,0,0,0,0,0,0,0,0,0,0,0,0,0,0,0,0,0,0,0,0,0,0,0,0,0,0,0,0,0,0,0,0,0,0,0,0,0,0,0,0,0,0,0,0,0,0,0,0,0,0,0,0,0,0,0,0,0,0,0,0,0,0,0,0,0,0,0,0,0],"id":1,"left_children":[1,3,5,7,9,11,13,15,17,19,21,23,25,27,29,31,-1,33,35,37,39,41,43,45,47,49,51,53,55,57,59,61,63,65,67,69,-1,71,73,75,77,79,81,83,85,87,89,91,93,95,97,99,101,103,105,107,109,111,113,115,117,-1,-1,119,-1,121,123,125,127,-1,-1,129,131,133,135,137,139,141,143,145,147,149,151,153,155,157,159,161,163,165,167,169,171,173,175,177,179,181,183,185,187,189,191,-1,193,195,197,-1,199,201,203,205,-1,207,209,211,-1,-1,213,-1,-1,-1,-1,-1,-1,-1,-1,-1,-1,-1,-1,-1,-1,-1,-1,-1,-1,-1,-1,-1,-1,-1,-1,-1,-1,-1,-1,-1,-1,-1,-1,-1,-1,-1,-1,-1,-1,-1,-1,-1,-1,-1,-1,-1,-1,-1,-1,-1,-1,-1,-1,-1,-1,-1,-1,-1,-1,-1,-1,-1,-1,-1,-1,-1,-1,-1,-1,-1,-1,-1,-1,-1,-1,-1,-1,-1,-1,-1,-1,-1,-1,-1,-1,-1,-1,-1,-1,-1,-1,-1,-1,-1,-1,-1,-1],"loss_changes":[8.242861E4,4.946914E3,1.141057E4,8.520742E2,1.7539265E3,2.7241523E3,1.836185E3,2.5355469E1,9.178965E2,3.8449683E2,6.6496E2,1.1292737E3,5.713164E2,5.152566E2,3.6687317E2,1.0082031E1,0E0,4.4770044E2,4.2780273E1,2.912569E2,8.687842E1,5.2149677E2,6.552899E1,5.15864E2,3.5233365E2,4.028203E2,3.4933984E2,2.2660815E2,3.47708E2,1.4324738E2,4.134803E1,1.3166016E1,6.130957E1,1.0461841E2,6.1259326E2,1.3193359E0,0E0,1.4697006E2,2.1094666E1,7.5051575E1,3.2136475E1,1.5003796E2,1.5226196E2,1.9348629E1,2.0254913E1,1.7735551E2,4.1436768E1,2.4289056E2,2.611982E2,8.976533E1,2.0047266E2,9.1184814E1,8.151411E2,1.5007861E2,6.408185E1,3.8997498E1,3.1093594E2,1.1412032E1,3.0054504E1,1.626769E1,3.6346336E1,0E0,0E0,2.650232E1,0E0,5.3888916E1,3.0369183E1,1.9170193E2,8.5747314E1,0E0,0E0,2.7199814E1,9.0691574E1,5.073268E0,8.371033E0,2.8807251E1,6.4116196E1,9.047876E0,2.7175293E1,5.546364E1,6.294922E1,8.670318E1,5.1826767E1,1.093049E0,3.2873363E0,1.987572E0,1.9099731E1,2.489402E1,2.0076077E2,4.4238342E1,1.6417236E1,4.4523396E1,3.7358154E1,5.3705986E1,5.51326E1,4.1758774E1,3.669725E1,1.4675781E1,1.11372314E2,3.340576E1,1.4538403E1,9.005469E1,6.793212E1,0E0,7.899609E1,1.6129063E1,2.604202E1,0E0,4.126587E1,1.4025174E2,4.329248E1,9.699557E0,0E0,4.1005222E1,2.0754944E1,5.3304586E0,0E0,0E0,8.419151E0,0E0,0E0,0E0,0E0,0E0,0E0,0E0,0E0,0E0,0E0,0E0,0E0,0E0,0E0,0E0,0E0,0E0,0E0,0E0,0E0,0E0,0E0,0E0,0E0,0E0,0E0,0E0,0E0,0E0,0E0,0E0,0E0,0E0,0E0,0E0,0E0,0E0,0E0,0E0,0E0,0E0,0E0,0E0,0E0,0E0,0E0,0E0,0E0,0E0,0E0,0E0,0E0,0E0,0E0,0E0,0E0,0E0,0E0,0E0,0E0,0E0,0E0,0E0,0E0,0E0,0E0,0E0,0E0,0E0,0E0,0E0,0E0,0E0,0E0,0E0,0E0,0E0,0E0,0E0,0E0,0E0,0E0,0E0,0E0,0E0,0E0,0E0,0E0,0E0,0E0,0E0,0E0,0E0,0E0,0E0,0E0],"parents":[2147483647,0,0,1,1,2,2,3,3,4,4,5,5,6,6,7,7,8,8,9,9,10,10,11,11,12,12,13,13,14,14,15,15,17,17,18,18,19,19,20,20,21,21,22,22,23,23,24,24,25,25,26,26,27,27,28,28,29,29,30,30,31,31,32,32,33,33,34,34,35,35,37,37,38,38,39,39,40,40,41,41,42,42,43,43,44,44,45,45,46,46,47,47,48,48,49,49,50,50,51,51,52,52,53,53,54,54,55,55,56,56,57,57,58,58,59,59,60,60,63,63,65,65,66,66,67,67,68,68,71,71,72,72,73,73,74,74,75,75,76,76,77,77,78,78,79,79,80,80,81,81,82,82,83,83,84,84,85,85,86,86,87,87,88,88,89,89,90,90,91,91,92,92,93,93,94,94,95,95,96,96,97,97,98,98,99,99,100,100,101,101,102,102,104,104,105,105,106,106,108,108,109,109,110,110,111,111,113,113,114,114,115,115,118,118],"right_children":[2,4,6,8,10,12,14,16,18,20,22,24,26,28,30,32,-1,34,36,38,40,42,44,46,48,50,52,54,56,58,60,62,64,66,68,70,-1,72,74,76,78,80,82,84,86,88,90,92,94,96,98,100,102,104,106,108,110,112,114,116,118,-1,-1,120,-1,122,124,126,128,-1,-1,130,132,134,136,138,140,142,144,146,148,150,152,154,156,158,160,162,164,166,168,170,172,174,176,178,180,182,184,186,188,190,192,-1,194,196,198,-1,200,202,204,206,-1,208,210,212,-1,-1,214,-1,-1,-1,-1,-1,-1,-1,-1,-1,-1,-1,-1,-1,-1,-1,-1,-1,-1,-1,-1,-1,-1,-1,-1,-1,-1,-1,-1,-1,-1,-1,-1,-1,-1,-1,-1,-1,-1,-1,-1,-1,-1,-1,-1,-1,-1,-1,-1,-1,-1,-1,-1,-1,-1,-1,-1,-1,-1,-1,-1,-1,-1,-1,-1,-1,-1,-1,-1,-1,-1,-1,-1,-1,-1,-1,-1,-1,-1,-1,-1,-1,-1,-1,-1,-1,-1,-1,-1,-1,-1,-1,-1,-1,-1,-1,-1],"split_conditions":[7.463892E4,2.4435055E5,3.0894718E0,5.814171E4,5.915204E4,9.230533E4,3.3708516E5,1.8141705E-1,2.845329E0,6.2072125E4,3.0339866E0,6.476303E4,7.174995E4,3.1619954E0,1.1021367E5,1.8424978E5,-5.4034833E-3,1.7394812E5,1.8097433E5,2.8031516E0,1.6990815E0,6.7816266E4,-3.1227503E-2,2.1083981E5,1.0422913E5,1.9721369E5,1.9032098E0,2E0,2.1826539E5,9.420628E4,5.998649E4,-1.6806948E-1,6.2072125E4,6.964467E4,5.8876742E4,1.3438929E4,7.940498E-3,5.0074125E4,-6.48787E-2,1.2613674E5,-6.48787E-2,4.8540953E4,1.6833916E0,3.055694E5,1.1941528E0,9.488485E-1,2.5674686E5,2.4918153E5,1.0133395E5,2.273562E4,2.3391225E0,1.2578827E5,1.0133395E5,-6.231344E-2,9.8401625E4,-8.453869E-2,3.6362042E0,3.71608E0,3.5160544E5,4.34451E0,1.3371875E0,-1.1694668E-2,-9.439224E-2,7.457635E4,-8.9368634E-2,-8.453869E-2,1.4024072E5,2E0,1E0,-8.624888E-3,-8.659991E-2,5.0207456E5,2.2055132E0,4.477649E4,5.5224438E4,1.1693951E-1,5.6415957E4,1.0410721E5,-7.59885E-2,2.7358003E5,1.7868171E0,7.73067E4,1E0,4.2873203E4,6.433446E4,2.809509E-3,6.426955E4,8.0834336E4,2.4574704E0,9.6377915E-1,2.4271917E0,2.0515569E5,1.0936979E5,2.3210814E0,2.1442733E0,2E0,2.4718618E0,4.538231E0,2.1413252E0,3.368004E5,1.0489614E5,2.3050146E0,1.0462082E5,2.490194E-2,3.1092982E0,2.5482547E0,1.896325E5,1.1374389E-2,3.485134E-2,2.0494456E0,1.1996245E5,2.1800053E0,-2.1096855E-2,2.5212472E5,2.1913593E0,1.9813396E0,-1.9392675E-2,1.5246292E-2,6.916115E4,-7.041846E-2,-3.5951074E-2,1.2692757E-4,-7.342415E-2,-4.5827366E-2,-4.9696574E-3,3.204537E-2,-2.109172E-2,-4.9284273E-3,-5.9593696E-2,-3.5391837E-2,1.1604631E-2,-1.6595336E-2,3.4449786E-2,-1.5686434E-2,8.975466E-3,-6.6804074E-2,-2.1096054E-2,-6.2298905E-2,7.3682102E-3,-3.3371557E-2,2.2271838E-2,8.791761E-3,-2.4109855E-2,-1.2622929E-2,-8.237128E-2,-1.4700873E-2,2.9848296E-2,7.4113025E-3,6.631722E-2,3.1426176E-2,-2.0088024E-2,1.1017035E-2,-3.8496144E-2,-1.6074917E-4,-2.1765133E-2,-1.5949361E-3,2.5547173E-2,-7.0177517E-3,8.514692E-3,-2.9029824E-2,-6.408405E-2,1.01599265E-2,-5.1694218E-2,4.8751783E-2,-3.9006148E-3,-2.4733618E-3,5.7205528E-2,8.0283254E-2,7.6063885E-4,-2.7452087E-2,5.955383E-3,4.964663E-2,8.765167E-3,2.4198148E-2,-2.633385E-2,7.65119E-3,-7.333676E-2,2.0515231E-2,-3.4013893E-2,6.0048416E-2,1.4169648E-2,9.481659E-2,8.169543E-3,7.808943E-2,3.6008086E-2,8.038788E-2,-5.940914E-3,1.748777E-2,-2.0988813E-2,7.0903294E-2,3.932301E-3,-1.7179674E-3,-5.0255142E-2,-2.0548278E-2,-8.637967E-2,5.977185E-3,-4.0235415E-2,3.770333E-2,-1.7749913E-2,-5.973822E-2,-9.280714E-3,4.5971565E-2,-2.5725516E-2,-5.150877E-2,1.2151153E-3,-9.173058E-3,1.8758377E-2,3.682793E-2,-2.692996E-2,7.605364E-2,-1.3854052E-3,-4.576304E-3,2.5380516E-2,-3.6223375E-3,-5.5263653E-2],"split_indices":[0,5,4,0,0,0,5,18,4,3,4,3,3,4,10,5,0,5,3,4,8,3,18,5,10,5,8,9,5,0,3,14,3,0,3,10,0,0,18,3,18,11,8,5,17,4,5,5,3,3,4,10,3,14,0,14,4,17,5,17,8,0,0,10,0,14,5,9,9,0,0,5,17,0,0,14,0,11,14,5,17,16,9,16,0,14,16,10,4,4,15,5,11,4,17,9,4,17,8,11,3,4,11,0,4,17,11,0,14,8,0,17,0,0,8,8,0,0,16,0,0,0,0,0,0,0,0,0,0,0,0,0,0,0,0,0,0,0,0,0,0,0,0,0,0,0,0,0,0,0,0,0,0,0,0,0,0,0,0,0,0,0,0,0,0,0,0,0,0,0,0,0,0,0,0,0,0,0,0,0,0,0,0,0,0,0,0,0,0,0,0,0,0,0,0,0,0,0,0,0,0,0,0,0,0,0,0,0,0,0,0,0,0,0,0],"split_type":[0,0,0,0,0,0,0,0,0,0,0,0,0,0,0,0,0,0,0,0,0,0,0,0,0,0,0,0,0,0,0,0,0,0,0,0,0,0,0,0,0,0,0,0,0,0,0,0,0,0,0,0,0,0,0,0,0,0,0,0,0,0,0,0,0,0,0,0,0,0,0,0,0,0,0,0,0,0,0,0,0,0,0,0,0,0,0,0,0,0,0,0,0,0,0,0,0,0,0,0,0,0,0,0,0,0,0,0,0,0,0,0,0,0,0,0,0,0,0,0,0,0,0,0,0,0,0,0,0,0,0,0,0,0,0,0,0,0,0,0,0,0,0,0,0,0,0,0,0,0,0,0,0,0,0,0,0,0,0,0,0,0,0,0,0,0,0,0,0,0,0,0,0,0,0,0,0,0,0,0,0,0,0,0,0,0,0,0,0,0,0,0,0,0,0,0,0,0,0,0,0,0,0,0,0,0,0,0,0,0,0,0,0,0,0],"sum_hessian":[4.765286E4,2.2485541E4,2.5167316E4,1.772909E4,4.7564507E3,2.206291E4,3.1044075E3,1.1901533E4,5.8275557E3,2.643041E3,2.1134097E3,4.079877E3,1.7983033E4,2.3597744E3,7.446331E2,1.1887934E4,1.3600385E1,2.81341E3,3.0141458E3,9.6389325E2,1.6791478E3,1.6567118E3,4.5669785E2,2.804741E3,1.275136E3,1.5285371E4,2.6976614E3,1.2375719E3,1.1222025E3,5.906498E2,1.5398335E2,8.993894E3,2.89404E3,1.3176868E3,1.4957231E3,3.006892E3,7.2537117E0,6.071163E2,3.56777E2,7.7262427E2,9.0652356E2,9.716267E2,6.850851E2,6.2401337E1,3.942965E2,8.8182715E2,1.922914E3,8.306415E2,4.4449448E2,3.2368503E2,1.4961687E4,1.6514495E3,1.0462118E3,1.1027684E3,1.348035E2,5.275403E2,5.946622E2,9.094933E1,4.9970047E2,5.536421E1,9.861913E1,1.565623E1,8.978237E3,9.2785834E2,1.9661818E3,1.1370045E3,1.8068222E2,6.9375726E2,8.0196594E2,8.686302E0,2.9982058E3,2.4513167E2,3.619846E2,2.2330544E1,3.3444644E2,5.0951962E2,2.6310464E2,2.9452152E1,8.770714E2,2.5420139E2,7.1742535E2,3.3943265E2,3.4565244E2,2.2907482E1,3.9493855E1,1.8992949E1,3.7530356E2,6.7271286E1,8.145559E2,6.223724E2,1.3005415E3,3.720178E2,4.586237E2,1.9120361E2,2.5329088E2,8.6901405E1,2.3678363E2,1.31192705E4,1.842416E3,1.6156945E3,3.5754986E1,7.4837054E2,2.9784125E2,2.1297407E1,1.081471E3,7.7343124E1,5.7460373E1,1.37180805E1,5.138222E2,3.752794E2,2.1938278E2,7.756686E1,1.3382474E1,5.4007816E1,4.4569266E2,4.5132576E1,1.0231634E1,1.1235753E1,8.7383385E1,7.315626E2,1.9629567E2,2.709927E1,1.1099053E3,5.788807E1,1.2279415E2,4.2512158E2,2.6863565E2,9.272637E1,7.0923956E2,2.2415932E2,2.097235E1,1.1287448E2,2.4911012E2,7.5521383E0,1.4778405E1,2.8042224E2,5.402422E1,5.0032306E2,9.196558E0,2.1859056E2,4.451409E1,1.7030802E1,1.24213505E1,2.9179958E1,8.478914E2,9.3880264E1,1.6032112E2,6.2142204E1,6.5528314E2,2.3973665E2,9.969602E1,5.212362E1,2.935288E2,7.7429447E0,1.5164537E1,9.861759E0,2.9632095E1,1.0046943E1,8.946007E0,1.7474489E2,2.0055869E2,9.036089E0,5.82352E1,5.272829E2,2.87273E2,3.2044815E1,5.903276E2,1.2929048E3,7.636736E0,1.853939E2,1.8662389E2,3.686909E2,8.993279E1,1.4140033E2,4.9803276E1,1.7722439E1,2.3556844E2,3.642991E1,5.0471497E1,1.348693E2,1.0191434E2,1.3107195E4,1.2075501E1,1.5541444E3,2.882715E2,1.6082823E3,7.4121203E0,1.9354162E1,1.6400824E1,6.859204E2,6.2450123E1,1.27161316E2,1.7067995E2,7.769978E1,1.0037712E3,1.5238088E1,6.2105034E1,4.9611736E1,7.848638E0,4.5076532E2,6.305691E1,3.0697534E2,6.830406E1,1.6913795E2,5.0244827E1,2.7881567E1,4.968529E1,4.2460567E1,1.1547252E1,4.3752405E2,8.168597E0,8.423898E0,3.670868E1,1.4697003E1,7.268638E1],"tree_param":{"num_deleted":"0","num_feature":"20","num_nodes":"215","size_leaf_vector":"1"}},{"base_weights":[-8.039047E-3,-1.2966312E0,1.212744E0,5.595487E-1,-1.5332707E0,1.4668896E0,-5.5223066E-1,-2.1531308E-1,1.0734375E0,-1.6416374E0,1.1358881E-1,7.550163E-1,1.6154696E0,1.418964E0,-1.0749913E0,2.2584279E-1,-1.0537963E0,1.2285657E0,1.966612E-1,-1.7269067E0,-1.2834917E0,-6.9826126E-1,6.766711E-1,1.6033852E0,2.4363263E-1,1.0090451E0,1.6759177E0,1.4666785E0,-1.0240994E-2,-1.4482925E0,6.9870156E-1,-3.0148846E-1,5.5752254E-1,1.097202E-1,-1.2086036E0,2.630231E-2,1.2870791E0,-5.3233784E-1,4.3251052E-1,-9.087778E-2,-1.4338188E0,-7.25087E-1,-1.5597162E0,-1.3169085E0,-3.3418745E-1,7.968108E-1,-3.8429865E-1,-9.94961E-4,1.619055E0,-5.417832E-1,1.0535388E0,1.6207993E0,5.720326E-1,9.1992445E-2,1.5775278E0,7.9290845E-2,1.1338432E-1,-1.5851501E0,-7.8279054E-1,9.0032256E-1,-3.474615E-1,-6.611734E-1,1.657171E-1,1.8685924E-2,7.4684775E-1,2.6713645E-1,-1.1607998E-2,-1.328987E0,-3.9139204E-2,3.4363057E-2,-3.574032E-2,1.7072318E-1,1.3259957E0,-6.3313043E-1,4.7347737E-3,8.540937E-1,-1.6215941E-1,-1.6044488E0,-8.8405037E-1,-1.3060099E0,-4.333812E-2,-1.6346332E0,-1.0062163E0,-5.6009884E-3,-7.056986E-2,2.6372442E-2,-6.0120624E-1,1.6839875E-1,9.085867E-1,2.2781771E-1,-3.5194386E-2,4.1115433E-1,8.448645E-2,-8.603359E-1,-5.3234953E-2,1.1212822E0,-1.2688765E-1,3.920265E-1,8.627589E-2,9.871477E-1,-1.5151046E-1,1.2921231E0,8.647436E-2,-1.7652206E-2,3.6830533E-1,-1.614146E0,5.807181E-2,-9.9183744E-1,2.3609115E-1,-3.3287862E-1,1.0546672E0,-6.4062846E-1,1.9045426E-1,1.04820235E-2,-4.9523324E-2,2.0248737E-2,-2.7955135E-2,1.0365624E-2,-1.1948275E-2,4.7207136E-2,1.4850661E-3,-8.6500257E-4,1.6290791E-2,-6.4510815E-3,-7.1176864E-2,8.305844E-3,-1.4841632E-2,-1.717403E-2,2.7545067E-2,6.931227E-2,-5.2953744E-3,-3.565109E-2,-1.3354487E-3,4.896209E-2,-4.3967366E-4,-2.8939374E-2,1.7015744E-2,-8.398754E-2,-1.6755098E-2,-2.9891962E-2,-6.5372095E-2,-1.1640381E-2,-6.927092E-2,-1.7587041E-2,2.6727842E-2,-8.4646314E-2,-5.579214E-3,-6.0224444E-2,2.6227275E-3,-1.88177E-2,1.4739655E-2,-3.7794612E-2,1.5190889E-3,-2.4395488E-2,2.8007729E-2,4.933443E-2,-1.05978325E-2,1.8126737E-2,-4.68787E-3,3.3318512E-2,-1.1303738E-2,-2.0556837E-2,-5.4911543E-2,1.4089192E-2,-2.4280572E-2,6.0914837E-2,-5.764893E-3,-3.28792E-2,1.9159589E-2,3.857629E-2,-1.6112614E-2,6.345291E-3,6.62817E-2,-1.7845437E-2,3.733136E-2,7.6964326E-2,3.867457E-2,2.2366304E-2,-6.3718983E-4,-8.4484085E-2,-5.8956495E-3,-1.2618143E-2,1.6925167E-2,-3.4244766E-3,-6.1238497E-2,3.1887278E-2,-2.009426E-2,5.36283E-3,-2.4897065E-2,5.973456E-2,-1.3222187E-2,-3.6870416E-2,-1.5559413E-5,1.6753344E-2,-6.1391606E-3],"categories":[],"categories_nodes":[],"categories_segments":[],"categories_sizes":[],"default_left":[0,0,0,0,0,0,0,0,0,0,0,0,0,0,0,0,0,0,0,0,0,0,0,0,0,0,0,0,0,0,0,0,0,0,0,0,0,0,0,0,0,0,0,0,0,0,0,0,0,0,0,0,0,0,0,0,0,0,0,0,0,0,0,0,0,0,0,0,0,0,0,0,0,0,0,0,0,0,0,0,0,0,0,0,0,0,0,0,0,0,0,0,0,0,0,0,0,0,0,0,0,0,0,0,0,0,0,0,0,0,0,0,0,0,0,0,0,0,0,0,0,0,0,0,0,0,0,0,0,0,0,0,0,0,0,0,0,0,0,0,0,0,0,0,0,0,0,0,0,0,0,0,0,0,0,0,0,0,0,0,0,0,0,0,0,0,0,0,0,0,0,0,0,0,0,0,0,0,0,0,0,0,0,0,0,0,0,0,0,0,0,0,0,0,0],"id":2,"left_children":[1,3,5,7,9,11,13,15,17,19,21,23,25,27,29,31,33,35,37,39,41,43,45,47,49,51,53,55,-1,57,59,61,63,65,67,69,71,73,75,-1,77,79,81,83,85,87,89,-1,91,93,95,97,99,-1,101,-1,103,105,107,109,111,113,115,117,119,121,-1,123,125,-1,-1,127,129,131,-1,133,135,137,139,141,143,145,147,-1,-1,149,151,153,155,157,-1,159,-1,161,163,165,167,169,-1,171,173,175,-1,-1,177,179,181,183,185,187,189,191,193,-1,-1,-1,-1,-1,-1,-1,-1,-1,-1,-1,-1,-1,-1,-1,-1,-1,-1,-1,-1,-1,-1,-1,-1,-1,-1,-1,-1,-1,-1,-1,-1,-1,-1,-1,-1,-1,-1,-1,-1,-1,-1,-1,-1,-1,-1,-1,-1,-1,-1,-1,-1,-1,-1,-1,-1,-1,-1,-1,-1,-1,-1,-1,-1,-1,-1,-1,-1,-1,-1,-1,-1,-1,-1,-1,-1,-1,-1,-1,-1,-1,-1],"loss_changes":[7.559638E4,1.0298695E4,1.1097398E4,1.0707477E3,3.7086055E3,2.2402812E3,3.279641E3,4.126005E2,2.1066101E2,5.175742E2,6.1670294E2,1.6314102E3,5.9470703E2,6.1887085E1,1.6869075E3,1.3610596E2,7.358234E1,9.4621826E1,5.671509E1,5.9367188E1,5.589927E2,1.09707184E2,1.1170456E2,3.718164E1,1.5506412E3,4.230719E2,6.888281E1,5.4378906E1,0E0,1.4568945E2,1.0728111E2,5.5914017E1,4.740309E1,6.1237216E0,4.618686E1,6.1198387E1,4.8529785E1,7.3481483E0,6.328714E1,0E0,1.1295557E2,5.3206696E2,4.928662E1,6.3376465E0,3.8655933E1,4.5520905E1,2.4297356E1,0E0,4.2319336E0,1.9211496E2,1.0062256E2,1.8964722E1,3.196232E2,0E0,1.619961E2,0E0,1.2354663E1,8.353418E1,9.800708E1,8.69736E1,1.9829567E1,5.3554947E1,3.3359047E1,8.778396E0,4.0606155E1,1.1139808E0,0E0,1.2084961E1,4.9533076E0,0E0,0E0,2.1381344E1,3.256006E1,2.0567722E0,0E0,1.1746979E1,3.103245E1,1.6307617E1,3.1288055E1,1.6825195E1,1.15412506E2,6.428711E0,6.879465E1,0E0,0E0,2.3996994E1,1.9554657E1,4.5234486E1,3.8070923E1,3.4556015E0,0E0,1.4463332E1,0E0,5.566864E1,7.619443E1,8.5390625E1,3.256037E1,2.6020947E1,0E0,1.6577106E2,7.843878E1,2.1133691E2,0E0,0E0,1.6814051E0,4.5927246E1,7.8846273E0,6.116751E1,3.2115395E1,6.295656E0,5.784143E1,3.3569508E0,3.8874202E0,0E0,0E0,0E0,0E0,0E0,0E0,0E0,0E0,0E0,0E0,0E0,0E0,0E0,0E0,0E0,0E0,0E0,0E0,0E0,0E0,0E0,0E0,0E0,0E0,0E0,0E0,0E0,0E0,0E0,0E0,0E0,0E0,0E0,0E0,0E0,0E0,0E0,0E0,0E0,0E0,0E0,0E0,0E0,0E0,0E0,0E0,0E0,0E0,0E0,0E0,0E0,0E0,0E0,0E0,0E0,0E0,0E0,0E0,0E0,0E0,0E0,0E0,0E0,0E0,0E0,0E0,0E0,0E0,0E0,0E0,0E0,0E0,0E0,0E0,0E0,0E0,0E0,0E0,0E0,0E0,0E0,0E0],"parents":[2147483647,0,0,1,1,2,2,3,3,4,4,5,5,6,6,7,7,8,8,9,9,10,10,11,11,12,12,13,13,14,14,15,15,16,16,17,17,18,18,19,19,20,20,21,21,22,22,23,23,24,24,25,25,26,26,27,27,29,29,30,30,31,31,32,32,33,33,34,34,35,35,36,36,37,37,38,38,40,40,41,41,42,42,43,43,44,44,45,45,46,46,48,48,49,49,50,50,51,51,52,52,54,54,56,56,57,57,58,58,59,59,60,60,61,61,62,62,63,63,64,64,65,65,67,67,68,68,71,71,72,72,73,73,75,75,76,76,77,77,78,78,79,79,80,80,81,81,82,82,85,85,86,86,87,87,88,88,89,89,91,91,93,93,94,94,95,95,96,96,97,97,99,99,100,100,101,101,104,104,105,105,106,106,107,107,108,108,109,109,110,110,111,111,112,112],"right_children":[2,4,6,8,10,12,14,16,18,20,22,24,26,28,30,32,34,36,38,40,42,44,46,48,50,52,54,56,-1,58,60,62,64,66,68,70,72,74,76,-1,78,80,82,84,86,88,90,-1,92,94,96,98,100,-1,102,-1,104,106,108,110,112,114,116,118,120,122,-1,124,126,-1,-1,128,130,132,-1,134,136,138,140,142,144,146,148,-1,-1,150,152,154,156,158,-1,160,-1,162,164,166,168,170,-1,172,174,176,-1,-1,178,180,182,184,186,188,190,192,194,-1,-1,-1,-1,-1,-1,-1,-1,-1,-1,-1,-1,-1,-1,-1,-1,-1,-1,-1,-1,-1,-1,-1,-1,-1,-1,-1,-1,-1,-1,-1,-1,-1,-1,-1,-1,-1,-1,-1,-1,-1,-1,-1,-1,-1,-1,-1,-1,-1,-1,-1,-1,-1,-1,-1,-1,-1,-1,-1,-1,-1,-1,-1,-1,-1,-1,-1,-1,-1,-1,-1,-1,-1,-1,-1,-1,-1,-1,-1,-1,-1,-1],"split_conditions":[7.606197E4,1E0,3.0894718E0,5.676014E4,6.62748E4,9.230533E4,1E0,3.1161754E0,3.0609424E0,6.3481914E4,5.570443E4,1E0,2.0227578E4,4.66492E0,4.622457E4,2.0626286E5,1.6841935E0,1.720489E4,1.869544E4,4.622457E4,2.4433382E0,2.2217984E5,3.1895094E0,2.0150117E4,3.9427715E4,1E0,1E0,1.3350681E5,-1.0240994E-2,2.8596467E4,3.8031354E0,2.1477357E4,4.800367E4,3E0,3.5836544E5,1.653537E4,1.41521E5,3.0981608E-2,6.688012E4,-9.087778E-2,5.4137016E4,2.6521889E4,2.3828538E5,-4.474615E-2,2.1771648E0,2.474927E5,5.2265703E4,-9.94961E-4,1.5512019E5,2.4892537E4,4E0,-8.7409124E-2,2.0980253E0,9.1992445E-2,4.3490195E4,7.9290845E-2,4.9717926E4,7.453472E-2,1.3847814E5,8.1684555E4,3.3708516E5,8.002609E-3,4E0,2.131687E4,3E0,-2.737041E-2,-1.1607998E-2,4.4909004E4,5.6824156E5,3.4363057E-2,-3.574032E-2,3.82703E4,2.0799759E-1,4.8094362E-1,4.7347737E-3,3.8031354E0,2.340209E5,2.4785773E4,2.9677505E0,-7.59885E-2,7.112773E4,2.4271917E0,5.3369973E4,-5.6009884E-3,-7.056986E-2,4.749022E4,2.4283506E-2,3.0772598E4,1.8321656E5,2.7694144E0,-3.5194386E-2,2.8401266E4,8.448645E-2,1.9441737E0,2E0,1.311484E5,4.8764562E4,-9.174908E-2,8.627589E-2,1.10135766E5,5.8162562E4,2.1082935E0,8.647436E-2,-1.7652206E-2,4.5716712E5,4.5716712E5,1E0,-1.9469816E-2,1.0762085E5,2E0,2.1339254E0,3.1463418E4,1E0,1.04820235E-2,-4.9523324E-2,2.0248737E-2,-2.7955135E-2,1.0365624E-2,-1.1948275E-2,4.7207136E-2,1.4850661E-3,-8.6500257E-4,1.6290791E-2,-6.4510815E-3,-7.1176864E-2,8.305844E-3,-1.4841632E-2,-1.717403E-2,2.7545067E-2,6.931227E-2,-5.2953744E-3,-3.565109E-2,-1.3354487E-3,4.896209E-2,-4.3967366E-4,-2.8939374E-2,1.7015744E-2,-8.398754E-2,-1.6755098E-2,-2.9891962E-2,-6.5372095E-2,-1.1640381E-2,-6.927092E-2,-1.7587041E-2,2.6727842E-2,-8.4646314E-2,-5.579214E-3,-6.0224444E-2,2.6227275E-3,-1.88177E-2,1.4739655E-2,-3.7794612E-2,1.5190889E-3,-2.4395488E-2,2.8007729E-2,4.933443E-2,-1.05978325E-2,1.8126737E-2,-4.68787E-3,3.3318512E-2,-1.1303738E-2,-2.0556837E-2,-5.4911543E-2,1.4089192E-2,-2.4280572E-2,6.0914837E-2,-5.764893E-3,-3.28792E-2,1.9159589E-2,3.857629E-2,-1.6112614E-2,6.345291E-3,6.62817E-2,-1.7845437E-2,3.733136E-2,7.6964326E-2,3.867457E-2,2.2366304E-2,-6.3718983E-4,-8.4484085E-2,-5.8956495E-3,-1.2618143E-2,1.6925167E-2,-3.4244766E-3,-6.1238497E-2,3.1887278E-2,-2.009426E-2,5.36283E-3,-2.4897065E-2,5.973456E-2,-1.3222187E-2,-3.6870416E-2,-1.5559413E-5,1.6753344E-2,-6.1391606E-3],"split_indices":[0,1,4,0,2,0,1,4,4,0,0,1,2,4,2,5,19,16,2,2,4,5,4,7,2,1,1,10,0,2,4,7,0,9,5,16,5,14,16,0,0,2,5,14,4,5,16,0,5,2,9,18,4,0,2,0,16,14,0,0,5,18,9,7,9,18,0,10,5,0,0,16,14,15,0,4,5,7,4,14,0,15,2,0,0,0,18,16,10,19,0,2,0,4,9,16,2,18,0,0,7,4,0,0,5,5,12,18,16,9,15,7,12,0,0,0,0,0,0,0,0,0,0,0,0,0,0,0,0,0,0,0,0,0,0,0,0,0,0,0,0,0,0,0,0,0,0,0,0,0,0,0,0,0,0,0,0,0,0,0,0,0,0,0,0,0,0,0,0,0,0,0,0,0,0,0,0,0,0,0,0,0,0,0,0,0,0,0,0,0,0,0,0,0,0],"split_type":[0,0,0,0,0,0,0,0,0,0,0,0,0,0,0,0,0,0,0,0,0,0,0,0,0,0,0,0,0,0,0,0,0,0,0,0,0,0,0,0,0,0,0,0,0,0,0,0,0,0,0,0,0,0,0,0,0,0,0,0,0,0,0,0,0,0,0,0,0,0,0,0,0,0,0,0,0,0,0,0,0,0,0,0,0,0,0,0,0,0,0,0,0,0,0,0,0,0,0,0,0,0,0,0,0,0,0,0,0,0,0,0,0,0,0,0,0,0,0,0,0,0,0,0,0,0,0,0,0,0,0,0,0,0,0,0,0,0,0,0,0,0,0,0,0,0,0,0,0,0,0,0,0,0,0,0,0,0,0,0,0,0,0,0,0,0,0,0,0,0,0,0,0,0,0,0,0,0,0,0,0,0,0,0,0,0,0,0,0,0,0,0,0,0,0],"sum_hessian":[4.7986562E4,2.3343877E4,2.4642684E4,2.6341887E3,2.070969E4,2.1546043E4,3.0966404E3,1.058419E3,1.5757698E3,1.9431188E4,1.2785009E3,3.7569243E3,1.778912E4,6.3662335E2,2.460017E3,7.101378E2,3.482811E2,1.3270537E3,2.4871605E2,1.5587456E4,3.8437317E3,5.2017926E2,7.5832166E2,1.3850648E3,2.3718594E3,1.6681213E3,1.6120998E4,6.215146E2,1.5108754E1,2.0375482E3,4.2246875E2,2.7541608E2,4.3472174E2,4.2084038E1,3.0619705E2,6.392339E1,1.2631304E3,5.0135723E1,1.9858032E2,1.3893446E4,1.6940098E3,1.3137225E3,2.530009E3,1.5907602E2,3.6110324E2,6.889462E2,6.937543E1,1.3171421E1,1.3718934E3,1.2099658E3,1.1618937E3,6.559336E2,1.0121878E3,7.5249604E3,8.596037E3,5.873369E2,3.4177673E1,1.6502418E3,3.8730646E2,3.5825992E2,6.420885E1,1.4747661E2,1.27939476E2,1.22940346E2,3.1178137E2,3.335929E1,8.72475E0,2.7332846E2,3.2868603E1,3.5182995E1,2.8740393E1,4.8845478E1,1.2142849E3,4.272593E1,7.409793E0,1.0734533E2,9.123499E1,1.2419843E3,4.5202548E2,6.921606E2,6.21562E2,2.1687083E3,3.6130096E2,1.0542103E1,1.4853392E2,1.6694264E2,1.9416058E2,1.1716991E2,5.717763E2,2.5295824E1,4.40796E1,3.0290232E1,1.3416033E3,7.164262E2,4.9353964E2,1.1004769E3,6.141673E1,3.7184875E1,6.187487E2,6.351482E2,3.770396E2,2.2936199E3,6.3024175E3,8.032599E0,2.6145075E1,1.6222303E3,2.801145E1,3.2213437E2,6.517211E1,3.5387276E1,3.2287262E2,3.7271725E1,2.693712E1,4.0582203E1,1.0689441E2,1.086292E2,1.9310274E1,7.511126E1,4.7829086E1,2.4532388E2,6.6457504E1,8.123793E0,2.5235497E1,1.5425391E1,2.5790308E2,2.496748E1,7.9011216E0,2.165507E1,2.7190409E1,1.2032759E3,1.100907E1,3.474164E1,7.98429E0,9.375198E1,1.3593343E1,4.7737915E1,4.3497074E1,1.2125696E3,2.9414679E1,2.9944174E2,1.5258376E2,2.9658463E1,6.625021E2,4.1519992E2,2.0636209E2,2.1608809E3,7.827266E0,3.1084033E2,5.046062E1,6.092411E1,1.0601854E2,1.5630556E2,3.785503E1,3.98013E1,7.736861E1,5.537028E2,1.8073496E1,1.5711196E1,9.584627E0,2.1492447E1,8.797784E0,2.4950314E2,4.6692303E2,2.8366434E2,2.0987532E2,1.0526794E3,4.779743E1,2.5573727E1,3.5843002E1,2.3325514E1,1.3859362E1,1.7444821E2,4.6069995E2,3.257597E2,5.127992E1,1.6379258E3,6.55694E2,1.8279137E1,7.8659368E0,1.5966621E3,2.556828E1,1.473687E1,1.327458E1,6.3745487E1,2.5838885E2,4.0756454E1,2.4415653E1,1.1681209E1,2.3706068E1,3.0345322E2,1.9419401E1,2.9890663E1,7.381062E0,1.7629234E1,9.307887E0],"tree_param":{"num_deleted":"0","num_feature":"20","num_nodes":"195","size_leaf_vector":"1"}},{"base_weights":[-2.3417458E-2,-1.2390517E0,1.1386447E0,-1.4921551E0,-6.683821E-1,1.3793852E0,-5.516195E-1,-1.3210176E0,-8.56785E-2,-1.08124994E-1,-1.1213845E0,6.164983E-1,1.521616E0,-1.070684E0,-1.5964888E-2,-1.468358E0,-1.0151854E0,-1.28988E0,1.0278991E-2,-7.0731705E-1,-1.297234E0,-3.4799144E-1,7.084608E-1,1.5365348E0,-6.308766E-1,-1.2711004E0,5.6929517E-1,-5.7299846E-1,4.0969557E-1,-5.0260868E-2,-1.4728686E0,-6.685957E-2,-1.0381207E0,-2.1423143E-1,-1.4615667E0,7.8905916E-1,-1.2903169E-1,-4.6720234E-1,-1.4245331E0,-9.44914E-1,-1.4751787E0,7.814075E-2,-9.902294E-1,9.806111E-1,1.6816704E-1,1.6221622E0,1.2510096E0,-6.7235485E-2,3.839595E-2,5.365737E-1,-1.4227833E0,-1.2497431E-1,9.251124E-1,3.162223E-1,-6.9568807E-1,6.469282E-1,-6.3118327E-1,-9.782143E-3,6.887179E-3,-1.4751743E0,1.0498458E-3,-2.950646E-2,3.1797174E-1,-1.0813106E0,-4.6286923E-1,-3.9379826E-1,8.637609E-3,-5.3371117E-3,-7.758516E-2,-3.7203518E-1,9.36372E-1,5.591307E-1,-2.8101546E-1,-7.74533E-1,3.757298E-2,-7.5398006E-2,-1.5281713E0,-5.4466593E-1,-1.1289681E0,-7.9287976E-2,-5.875562E-1,-6.125665E-1,4.047718E-1,9.404013E-3,-6.096611E-2,1.1827857E0,5.778985E-1,3.0728638E-1,-9.120918E-1,6.173454E-1,1.6429216E0,1.3654962E0,7.022653E-1,-1.6779073E-2,7.3400205E-1,-1.4805691E0,3.5144757E-2,1.9481407E-1,-3.8604876E-1,5.5313222E-2,-9.686387E-3,4.726402E-1,-1.529105E-2,-7.749715E-1,4.262753E-1,-4.309158E-1,8.15096E-1,5.134981E-3,-8.131256E-1,-7.652914E-2,-2.5628332E-2,-6.059376E-3,2.3808895E-2,-4.6358947E-2,-6.436565E-2,1.8729271E-2,-3.439406E-2,-2.2715893E-2,-2.0665067E-4,1.6911635E-2,-3.3732038E-2,-4.737497E-3,5.3391643E-2,3.8419418E-2,-3.3734836E-2,-2.3688965E-2,1.7534852E-2,-4.8056375E-2,-1.0527249E-2,1.0963446E-2,-2.0875875E-2,-1.4038632E-2,8.646115E-3,-5.379737E-3,-8.042277E-2,-3.6343057E-2,2.9876605E-3,2.9667295E-3,-5.9255075E-2,1.2471585E-2,-3.9894767E-2,-1.0798186E-3,-3.4757797E-2,2.8695853E-2,-2.0305727E-2,1.4649855E-2,6.474276E-2,-2.5236258E-2,3.402405E-2,2.033254E-2,-3.437606E-2,-5.272284E-2,5.248926E-3,4.1917354E-2,-2.349599E-2,6.745325E-2,8.576125E-2,5.7433665E-2,7.979774E-2,5.902861E-2,-7.843046E-3,4.610374E-2,-4.5117894E-3,-2.5409924E-2,-8.24097E-2,-9.194906E-3,2.155754E-2,3.5380508E-4,-2.2717917E-2,3.6216494E-2,-2.929116E-3,1.4436506E-2,-4.310524E-2,3.0446773E-2,-7.177658E-3,2.9320838E-2,-4.25841E-2,-1.4935021E-2,4.641161E-2,-2.2299267E-2,1.6485868E-2,-4.6405014E-2,2.3977023E-4],"categories":[],"categories_nodes":[],"categories_segments":[],"categories_sizes":[],"default_left":[0,0,0,0,0,0,0,0,0,0,0,0,0,0,0,0,0,0,0,0,0,0,0,0,0,0,0,0,0,0,0,0,0,0,0,0,0,0,0,0,0,0,0,0,0,0,0,0,0,0,0,0,0,0,0,0,0,0,0,0,0,0,0,0,0,0,0,0,0,0,0,0,0,0,0,0,0,0,0,0,0,0,0,0,0,0,0,0,0,0,0,0,0,0,0,0,0,0,0,0,0,0,0,0,0,0,0,0,0,0,0,0,0,0,0,0,0,0,0,0,0,0,0,0,0,0,0,0,0,0,0,0,0,0,0,0,0,0,0,0,0,0,0,0,0,0,0,0,0,0,0,0,0,0,0,0,0,0,0,0,0,0,0,0,0,0,0,0,0,0,0,0,0,0,0,0,0,0,0,0,0,0,0],"id":3,"left_children":[1,3,5,7,9,11,13,15,-1,17,19,21,23,25,27,29,31,33,35,37,39,41,43,45,47,49,51,53,55,57,59,61,63,65,67,69,71,73,75,77,79,81,83,85,87,89,91,-1,-1,93,95,97,99,101,103,105,107,-1,-1,109,-1,-1,111,113,115,117,-1,-1,-1,119,121,123,125,127,129,131,133,135,137,-1,139,141,143,-1,-1,145,147,149,151,153,155,157,159,-1,161,163,-1,165,167,-1,-1,169,-1,171,173,175,177,179,181,-1,-1,-1,-1,-1,-1,-1,-1,-1,-1,-1,-1,-1,-1,-1,-1,-1,-1,-1,-1,-1,-1,-1,-1,-1,-1,-1,-1,-1,-1,-1,-1,-1,-1,-1,-1,-1,-1,-1,-1,-1,-1,-1,-1,-1,-1,-1,-1,-1,-1,-1,-1,-1,-1,-1,-1,-1,-1,-1,-1,-1,-1,-1,-1,-1,-1,-1,-1,-1,-1,-1,-1,-1,-1],"loss_changes":[6.776576E4,3.3517227E3,1.0006498E4,3.851289E2,1.8399412E3,2.2979922E3,8.564619E2,3.159121E2,0E0,4.603824E2,2.6043848E2,3.1308997E2,6.1421875E2,5.394757E2,3.7618744E2,3.2151367E1,5.7729736E1,4.446756E1,3.313975E2,1.9610791E2,1.2566846E2,9.084778E1,4.5687085E2,3.6882812E2,1.7086322E2,4.1180225E2,5.2030273E1,8.2562836E1,2.3642691E2,2.2319887E0,1.9666016E1,2.6165596E1,4.964917E1,7.892749E0,8.376404E0,9.135339E1,2.7667963E2,1.5694933E2,3.82724E1,5.4398438E1,6.2822266E1,5.954521E1,3.6604218E1,1.4604224E2,1.7439246E2,2.5066406E2,2.3664502E2,0E0,0E0,3.1053825E1,1.9365088E2,1.0659909E1,2.8437126E1,1.5110917E1,6.61124E1,1.4815845E2,2.1520065E1,0E0,0E0,6.682617E0,0E0,0E0,6.8710804E0,3.6382812E1,5.0065144E1,1.1194792E0,0E0,0E0,0E0,2.2540344E1,4.5304016E1,1.2434758E2,2.4185214E2,4.9064056E1,3.48641E1,4.344576E0,5.677307E0,3.8800148E1,1.658606E1,0E0,3.2202194E1,2.585247E0,2.8509699E1,0E0,0E0,7.33772E1,7.692876E1,9.270376E1,1.8292023E1,8.204821E1,1.8125E0,1.00305176E2,3.1174014E2,0E0,1.8264404E1,1.17930664E2,0E0,8.082206E0,1.4693336E0,0E0,0E0,1.3306925E1,0E0,4.4768677E1,8.639453E0,6.4899536E1,6.974158E1,1.5134155E1,1.0147636E1,0E0,0E0,0E0,0E0,0E0,0E0,0E0,0E0,0E0,0E0,0E0,0E0,0E0,0E0,0E0,0E0,0E0,0E0,0E0,0E0,0E0,0E0,0E0,0E0,0E0,0E0,0E0,0E0,0E0,0E0,0E0,0E0,0E0,0E0,0E0,0E0,0E0,0E0,0E0,0E0,0E0,0E0,0E0,0E0,0E0,0E0,0E0,0E0,0E0,0E0,0E0,0E0,0E0,0E0,0E0,0E0,0E0,0E0,0E0,0E0,0E0,0E0,0E0,0E0,0E0,0E0,0E0,0E0,0E0,0E0,0E0,0E0,0E0,0E0],"parents":[2147483647,0,0,1,1,2,2,3,3,4,4,5,5,6,6,7,7,9,9,10,10,11,11,12,12,13,13,14,14,15,15,16,16,17,17,18,18,19,19,20,20,21,21,22,22,23,23,24,24,25,25,26,26,27,27,28,28,29,29,30,30,31,31,32,32,33,33,34,34,35,35,36,36,37,37,38,38,39,39,40,40,41,41,42,42,43,43,44,44,45,45,46,46,49,49,50,50,51,51,52,52,53,53,54,54,55,55,56,56,59,59,62,62,63,63,64,64,65,65,69,69,70,70,71,71,72,72,73,73,74,74,75,75,76,76,77,77,78,78,80,80,81,81,82,82,85,85,86,86,87,87,88,88,89,89,90,90,91,91,92,92,94,94,95,95,97,97,98,98,101,101,103,103,104,104,105,105,106,106,107,107,108,108],"right_children":[2,4,6,8,10,12,14,16,-1,18,20,22,24,26,28,30,32,34,36,38,40,42,44,46,48,50,52,54,56,58,60,62,64,66,68,70,72,74,76,78,80,82,84,86,88,90,92,-1,-1,94,96,98,100,102,104,106,108,-1,-1,110,-1,-1,112,114,116,118,-1,-1,-1,120,122,124,126,128,130,132,134,136,138,-1,140,142,144,-1,-1,146,148,150,152,154,156,158,160,-1,162,164,-1,166,168,-1,-1,170,-1,172,174,176,178,180,182,-1,-1,-1,-1,-1,-1,-1,-1,-1,-1,-1,-1,-1,-1,-1,-1,-1,-1,-1,-1,-1,-1,-1,-1,-1,-1,-1,-1,-1,-1,-1,-1,-1,-1,-1,-1,-1,-1,-1,-1,-1,-1,-1,-1,-1,-1,-1,-1,-1,-1,-1,-1,-1,-1,-1,-1,-1,-1,-1,-1,-1,-1,-1,-1,-1,-1,-1,-1,-1,-1,-1,-1,-1,-1],"split_conditions":[7.606197E4,6.0060566E4,3.0972164E0,2.8734684E0,2.4574704E0,9.052266E4,3.1619954E0,5.310846E4,-8.56785E-2,-2.197665E0,2.906921E0,3.983076E4,2.777082E5,2E0,9.899436E4,-1.4450139E-1,-8.0473E-2,-2.2843535E0,1E0,2.8337557E0,2.748991E4,3E0,2.3391225E0,2.0980253E0,1.1177297E5,3.535234E4,1.0205606E5,-3.6053896E-2,2.2371004E0,-3.8092265E-1,1.5921466E-1,1.306749E0,4.8717402E-2,9.418061E-3,2.420411E0,-1.7489073E0,1E0,6.814176E4,7.687949E4,8.288618E4,3E0,3.5383285E4,2.3720243E0,2E0,1.186269E5,4.178751E4,2.02055E0,-6.7235485E-2,3.839595E-2,3.5530668E4,3E0,1.6101851E0,1.896325E5,4.4717426E4,5.9030145E-2,3.1761618E0,7.5604195E4,-9.782143E-3,6.887179E-3,1.0572277E-1,1.0498458E-3,-2.950646E-2,-5.306458E-1,2.2571988E0,1E0,2.7575898E0,8.637609E-3,-5.3371117E-3,-7.758516E-2,1.16549935E-2,3.159021E4,8.073398E4,7.20932E4,7.426402E4,3E0,2.378156E4,-1.5941145E-2,7.0164695E4,-9.174908E-2,-7.9287976E-2,-2.9243495E-2,1E0,3.6503043E0,9.404013E-3,-6.096611E-2,2.6041494E4,2.065355E4,1.7960673E5,3.729548E4,1.3648512E0,2.3004188E4,1.23665984E5,1.167656E5,-1.6779073E-2,9.084996E4,1.4924393E0,3.5144757E-2,1.0297377E0,6.0577496E4,5.5313222E-2,-9.686387E-3,1.4493298E5,-1.529105E-2,-6.912185E-2,2.6078672E0,1.1946021E0,3.4490605E4,4.480507E4,1.941937E5,-7.652914E-2,-2.5628332E-2,-6.059376E-3,2.3808895E-2,-4.6358947E-2,-6.436565E-2,1.8729271E-2,-3.439406E-2,-2.2715893E-2,-2.0665067E-4,1.6911635E-2,-3.3732038E-2,-4.737497E-3,5.3391643E-2,3.8419418E-2,-3.3734836E-2,-2.3688965E-2,1.7534852E-2,-4.8056375E-2,-1.0527249E-2,1.0963446E-2,-2.0875875E-2,-1.4038632E-2,8.646115E-3,-5.379737E-3,-8.042277E-2,-3.6343057E-2,2.9876605E-3,2.9667295E-3,-5.9255075E-2,1.2471585E-2,-3.9894767E-2,-1.0798186E-3,-3.4757797E-2,2.8695853E-2,-2.0305727E-2,1.4649855E-2,6.474276E-2,-2.5236258E-2,3.402405E-2,2.033254E-2,-3.437606E-2,-5.272284E-2,5.248926E-3,4.1917354E-2,-2.349599E-2,6.745325E-2,8.576125E-2,5.7433665E-2,7.979774E-2,5.902861E-2,-7.843046E-3,4.610374E-2,-4.5117894E-3,-2.5409924E-2,-8.24097E-2,-9.194906E-3,2.155754E-2,3.5380508E-4,-2.2717917E-2,3.6216494E-2,-2.929116E-3,1.4436506E-2,-4.310524E-2,3.0446773E-2,-7.177658E-3,2.9320838E-2,-4.25841E-2,-1.4935021E-2,4.641161E-2,-2.2299267E-2,1.6485868E-2,-4.6405014E-2,2.3977023E-4],"split_indices":[0,0,4,4,4,0,4,0,0,15,4,6,16,9,0,14,18,15,9,8,7,13,4,4,0,7,0,18,8,15,14,19,14,18,19,15,13,0,6,6,9,16,8,9,6,6,8,0,0,11,13,8,11,7,14,4,11,0,0,18,0,0,15,8,13,8,0,0,0,14,6,6,0,11,13,7,14,0,18,0,14,13,19,0,0,16,7,11,7,15,7,0,6,0,16,19,0,19,11,0,0,6,0,14,19,8,11,11,16,0,0,0,0,0,0,0,0,0,0,0,0,0,0,0,0,0,0,0,0,0,0,0,0,0,0,0,0,0,0,0,0,0,0,0,0,0,0,0,0,0,0,0,0,0,0,0,0,0,0,0,0,0,0,0,0,0,0,0,0,0,0,0,0,0,0,0,0,0,0,0,0,0,0],"split_type":[0,0,0,0,0,0,0,0,0,0,0,0,0,0,0,0,0,0,0,0,0,0,0,0,0,0,0,0,0,0,0,0,0,0,0,0,0,0,0,0,0,0,0,0,0,0,0,0,0,0,0,0,0,0,0,0,0,0,0,0,0,0,0,0,0,0,0,0,0,0,0,0,0,0,0,0,0,0,0,0,0,0,0,0,0,0,0,0,0,0,0,0,0,0,0,0,0,0,0,0,0,0,0,0,0,0,0,0,0,0,0,0,0,0,0,0,0,0,0,0,0,0,0,0,0,0,0,0,0,0,0,0,0,0,0,0,0,0,0,0,0,0,0,0,0,0,0,0,0,0,0,0,0,0,0,0,0,0,0,0,0,0,0,0,0,0,0,0,0,0,0,0,0,0,0,0,0,0,0,0,0,0,0],"sum_hessian":[4.790158E4,2.341003E4,2.449155E4,1.6178514E4,7.2315146E3,2.1443746E4,3.0478047E3,8.1236274E3,8.0548867E3,3.2522375E3,3.9792773E3,3.3987634E3,1.8044982E4,1.5302739E3,1.5175308E3,5.3933887E3,2.7302383E3,2.649191E2,2.9873184E3,1.2381288E3,2.7411484E3,2.8744925E2,3.1113142E3,1.7930635E4,1.14348335E2,1.3705829E3,1.5969096E2,6.521273E2,8.6540344E2,1.843603E1,5.3749526E3,6.76798E1,2.6625586E3,4.7197983E1,2.1772112E2,4.2874234E2,2.5585762E3,9.7050714E2,2.6762167E2,9.933294E2,1.747819E3,1.9111389E2,9.6335365E1,2.0502922E3,1.061022E3,1.3668974E4,4.2616606E3,7.8081696E1,3.6266636E1,9.9288155E1,1.2712948E3,6.1736805E1,9.7954155E1,7.243217E1,5.796951E2,7.154677E2,1.4993573E2,9.86923E0,8.566799E0,5.367084E3,7.869107E0,2.2026176E1,4.5653625E1,2.4482258E3,2.1433276E2,3.1325014E1,1.5872968E1,9.806668E0,2.0791444E2,4.2313152E1,3.8642917E2,4.4603772E2,2.1125383E3,5.917083E2,3.7879886E2,2.3367222E1,2.4425446E2,3.5616446E2,6.37165E2,1.6143558E3,1.3346309E2,5.1608887E1,1.39505E2,1.3622063E1,8.27133E1,1.320272E3,7.300202E2,9.619615E2,9.906051E1,2.9826868E2,1.3370705E4,3.4832917E3,7.78369E2,1.4341519E1,8.494664E1,1.2472908E3,2.4003979E1,3.170516E1,3.0031645E1,8.778354E1,1.0170614E1,6.399067E1,8.441502E0,5.514561E2,2.8239008E1,8.9247185E1,6.262205E2,4.083446E1,1.09101265E2,5.316263E3,5.082055E1,1.2816156E1,3.283747E1,1.261336E3,1.1868896E3,3.689508E1,1.774377E2,2.4053991E1,7.2710223E0,1.0479032E1,3.183412E1,3.3496696E1,3.529325E2,3.9875104E2,4.7286682E1,1.6496404E3,4.628981E2,4.4777795E2,1.4393033E2,2.843757E2,9.442317E1,1.0629983E1,1.273724E1,7.9507866E0,2.3630367E2,2.772822E2,7.8882256E1,8.3546915E0,6.288103E2,2.2367407E1,1.1109569E2,9.08114E0,4.252775E1,1.2621222E2,1.3292789E1,1.08446396E2,1.2118257E3,3.899722E1,6.91023E2,9.0257263E2,5.9388855E1,8.928238E1,9.778129E0,2.5971597E2,3.8552708E1,7.719748E2,1.259873E4,1.544073E3,1.9392186E3,5.0587906E2,2.7249E2,6.8700806E1,1.624583E1,1.4852533E2,1.0987655E3,1.443997E1,1.726519E1,7.245773E0,2.2785872E1,3.6846252E1,2.7144417E1,2.253123E1,5.289249E2,2.0768768E1,7.4702396E0,2.0879417E1,6.836777E1,3.7876183E1,5.8834436E2,1.1640026E1,2.9194437E1,9.5731606E1,1.3369662E1],"tree_param":{"num_deleted":"0","num_feature":"20","num_nodes":"183","size_leaf_vector":"1"}},{"base_weights":[4.5001465E-3,-1.1816854E0,1.1235735E0,6.0339254E-1,-1.4112117E0,1.339387E0,-4.184462E-1,-3.0039448E-1,1.0311528E0,-1.5130326E0,4.868972E-2,6.363483E-1,1.4711171E0,-1.0937275E0,8.5363406E-1,-1.230387E0,9.113065E-2,1.1518193E0,2.8578866E-1,-1.582612E0,-1.1508063E0,-5.9264904E-1,6.6900694E-1,1.4875016E0,1.4448407E-1,1.5765278E0,1.0135514E0,9.578611E-1,-1.3756776E0,1.0566214E0,-1.6581503E-1,1.2466337E-1,-1.3756849E0,4.3315434E-1,-1.6953832E-1,2.7240953E-1,1.222288E0,-9.527699E-2,8.2580906E-1,-8.3909266E-2,-1.3752129E0,-1.378306E0,-3.7197146E-1,-9.6383363E-1,-7.01167E-2,8.997371E-1,-1.380104E-1,1.5654023E0,8.391808E-1,-5.402379E-1,9.123217E-1,6.208764E-1,1.5943694E0,1.524369E0,5.6852037E-1,1.2150112E0,-3.9894703E-1,-1.4551326E0,-1.314103E-1,2.9349434E-1,1.2583797E0,6.285104E-1,-5.725574E-1,-9.240953E-3,1.5400658E-2,-1.1144721E-2,-7.324416E-2,-2.3713121E-1,8.0026466E-1,-6.313444E-1,1.2655316E-1,-4.9121895E-1,6.9640267E-1,1.3648665E0,8.1512105E-1,-4.1639942E-1,3.224241E-1,9.612484E-1,-1.0581931E-2,-1.4934229E0,-9.5150924E-1,-1.013642E0,-1.4968746E0,2.0003386E-1,-1.0001754E0,-3.084268E-1,-1.0861557E0,4.6355835E-1,-5.549891E-1,-2.8808532E-2,1.0626973E0,3.9026967E-1,-3.847213E-2,3.081922E-1,8.16926E-2,1.001953E0,-2.0707248E-1,-7.336028E-1,4.1644417E-2,1.1894997E0,-1.9978605E-1,5.9701513E-2,1.767648E-1,8.421258E-2,1.3014331E0,6.736639E-3,1.530868E0,-3.9488214E-1,8.97934E-1,6.7135684E-2,1.7656067E-1,-3.7981965E-2,1.9245194E-2,-1.4808892E0,8.2338125E-2,3.2622027E-1,-4.179684E-2,7.965301E-1,-9.504447E-2,1.3730334E0,1.365941E-1,4.0381297E-2,-8.571638E-3,-8.82042E-1,1.0857781E-1,7.86347E-3,-3.4167368E-2,4.7081377E-2,6.3258084E-3,-7.587349E-4,-3.7358273E-2,2.3103058E-2,-1.4180722E-2,1.00781005E-2,-3.423038E-2,-3.320307E-3,4.128623E-2,2.1427942E-2,7.503263E-2,5.001102E-2,2.3409016E-3,1.6863236E-2,-2.9206337E-2,2.7034095E-2,-1.118302E-2,1.1400327E-3,5.3888306E-2,3.3848982E-3,-7.767371E-2,-1.7746877E-2,-6.2454045E-2,-5.5590954E-2,-1.7722152E-3,-7.790074E-2,-1.1051106E-2,2.7202586E-2,-3.657496E-2,-6.338677E-2,1.9222617E-2,-3.332784E-2,1.9861432E-2,-6.019925E-2,4.117112E-3,4.2297125E-2,-1.3572364E-2,-4.6022784E-2,2.094453E-2,2.3347061E-2,-1.832938E-2,6.4360134E-2,1.6631834E-2,-1.250172E-2,3.3381432E-2,-8.284421E-3,2.5960958E-2,5.433556E-2,-3.080734E-4,3.4579658E-3,-1.5445387E-2,-7.1927942E-3,-4.5111477E-2,1.5142186E-2,-3.683407E-2,6.676077E-2,-8.781157E-3,4.1806035E-2,-4.4318993E-2,2.8968636E-2,-1.987798E-2,2.1153722E-2,7.237671E-2,7.959433E-2,1.2776077E-2,-5.288159E-2,1.6980104E-2,6.345463E-2,2.80288E-2,-1.02850925E-2,2.0188296E-2,-3.2120957E-3,-7.77471E-2,-1.27619095E-2,1.5560278E-2,-1.3868678E-2,3.2466043E-2,4.4434927E-2,3.4639204E-3,-1.7656168E-2,2.255542E-2,7.360146E-2,-1.0361328E-2,2.3728132E-2,-1.8949142E-2,-3.911259E-3,-4.8717316E-2,-1.2917898E-2,1.423408E-2],"categories":[],"categories_nodes":[],"categories_segments":[],"categories_sizes":[],"default_left":[0,0,0,0,0,0,0,0,0,0,0,0,0,0,0,0,0,0,0,0,0,0,0,0,0,0,0,0,0,0,0,0,0,0,0,0,0,0,0,0,0,0,0,0,0,0,0,0,0,0,0,0,0,0,0,0,0,0,0,0,0,0,0,0,0,0,0,0,0,0,0,0,0,0,0,0,0,0,0,0,0,0,0,0,0,0,0,0,0,0,0,0,0,0,0,0,0,0,0,0,0,0,0,0,0,0,0,0,0,0,0,0,0,0,0,0,0,0,0,0,0,0,0,0,0,0,0,0,0,0,0,0,0,0,0,0,0,0,0,0,0,0,0,0,0,0,0,0,0,0,0,0,0,0,0,0,0,0,0,0,0,0,0,0,0,0,0,0,0,0,0,0,0,0,0,0,0,0,0,0,0,0,0,0,0,0,0,0,0,0,0,0,0,0,0,0,0,0,0,0,0,0,0,0,0,0,0,0,0,0,0,0,0,0,0,0,0],"id":4,"left_children":[1,3,5,7,9,11,13,15,17,19,21,23,25,27,29,31,33,35,37,39,41,43,45,47,49,51,53,55,57,59,61,63,65,67,69,71,73,75,77,-1,79,81,83,85,87,89,91,93,95,97,99,101,103,105,107,109,111,113,115,117,119,121,123,-1,-1,-1,-1,125,127,129,131,133,135,137,139,141,143,145,-1,147,149,151,153,155,157,159,161,163,165,167,169,171,-1,173,-1,175,177,179,181,183,185,-1,187,-1,189,-1,191,193,195,-1,197,-1,-1,199,201,203,-1,205,207,209,211,-1,-1,213,215,-1,-1,-1,-1,-1,-1,-1,-1,-1,-1,-1,-1,-1,-1,-1,-1,-1,-1,-1,-1,-1,-1,-1,-1,-1,-1,-1,-1,-1,-1,-1,-1,-1,-1,-1,-1,-1,-1,-1,-1,-1,-1,-1,-1,-1,-1,-1,-1,-1,-1,-1,-1,-1,-1,-1,-1,-1,-1,-1,-1,-1,-1,-1,-1,-1,-1,-1,-1,-1,-1,-1,-1,-1,-1,-1,-1,-1,-1,-1,-1,-1,-1,-1,-1,-1,-1,-1,-1,-1,-1,-1,-1],"loss_changes":[6.264571E4,9.416174E3,8.1007246E3,1.0292302E3,3.0216094E3,1.9411094E3,2.616111E3,3.2182837E2,1.5010828E2,4.1534766E2,5.5392456E2,1.4260145E3,8.089375E2,1.1910305E3,2.2594409E2,5.7354706E1,6.0211655E1,8.3528076E1,6.371897E1,5.8777344E1,5.468345E2,1.3070377E2,1.3586005E2,1.7570068E1,1.1781959E3,2.129375E2,7.548281E2,1.0742114E2,1.6687036E2,1.24335205E2,7.917357E1,4.8550677E0,1.0162354E0,7.7819984E1,5.6369766E1,6.317426E1,4.328662E1,3.2136852E1,2.4446892E1,0E0,9.425488E1,5.344043E1,2.8287854E2,2.0313538E1,9.232956E1,8.489603E1,7.006165E1,4.463135E0,4.2773224E1,1.3486258E2,3.3312286E2,6.952194E1,7.4671875E1,7.4509277E0,6.1543274E2,1.1932861E1,2.7005793E1,6.94209E1,5.3646233E1,4.7873924E1,8.2746826E1,1.5011353E1,3.592641E1,0E0,0E0,0E0,0E0,2.4831188E1,1.0801331E1,8.622623E0,3.8683235E1,1.3527464E1,1.0863667E1,6.1605957E1,5.1662476E1,2.0886236E1,1.5681937E1,8.2372055E0,0E0,3.7362793E1,9.836688E1,4.2037292E1,1.3753906E1,1.4064798E2,1.3148822E2,3.4517952E1,3.2883423E1,5.1909584E1,7.208404E1,2.3815258E1,5.0112366E1,2.5288128E1,0E0,7.9337406E0,0E0,9.578033E0,2.1260562E0,6.9973694E1,6.9754524E1,1.26090454E2,1.834066E2,0E0,5.430822E1,0E0,1.3203076E2,0E0,6.444336E0,2.4289804E2,1.4436768E2,0E0,7.3015127E0,0E0,0E0,5.18125E1,6.9045887E0,2.5683031E1,0E0,2.846115E0,2.6371006E1,6.0680542E1,2.255297E1,0E0,0E0,2.932579E0,7.1314898E0,0E0,0E0,0E0,0E0,0E0,0E0,0E0,0E0,0E0,0E0,0E0,0E0,0E0,0E0,0E0,0E0,0E0,0E0,0E0,0E0,0E0,0E0,0E0,0E0,0E0,0E0,0E0,0E0,0E0,0E0,0E0,0E0,0E0,0E0,0E0,0E0,0E0,0E0,0E0,0E0,0E0,0E0,0E0,0E0,0E0,0E0,0E0,0E0,0E0,0E0,0E0,0E0,0E0,0E0,0E0,0E0,0E0,0E0,0E0,0E0,0E0,0E0,0E0,0E0,0E0,0E0,0E0,0E0,0E0,0E0,0E0,0E0,0E0,0E0,0E0,0E0,0E0,0E0,0E0,0E0,0E0,0E0,0E0,0E0,0E0,0E0,0E0,0E0,0E0,0E0,0E0,0E0],"parents":[2147483647,0,0,1,1,2,2,3,3,4,4,5,5,6,6,7,7,8,8,9,9,10,10,11,11,12,12,13,13,14,14,15,15,16,16,17,17,18,18,19,19,20,20,21,21,22,22,23,23,24,24,25,25,26,26,27,27,28,28,29,29,30,30,31,31,32,32,33,33,34,34,35,35,36,36,37,37,38,38,40,40,41,41,42,42,43,43,44,44,45,45,46,46,47,47,48,48,49,49,50,50,51,51,52,52,53,53,54,54,55,55,56,56,57,57,58,58,59,59,60,60,61,61,62,62,67,67,68,68,69,69,70,70,71,71,72,72,73,73,74,74,75,75,76,76,77,77,79,79,80,80,81,81,82,82,83,83,84,84,85,85,86,86,87,87,88,88,89,89,90,90,91,91,93,93,95,95,96,96,97,97,98,98,99,99,100,100,102,102,104,104,106,106,107,107,108,108,110,110,113,113,114,114,115,115,117,117,118,118,119,119,120,120,123,123,124,124],"right_children":[2,4,6,8,10,12,14,16,18,20,22,24,26,28,30,32,34,36,38,40,42,44,46,48,50,52,54,56,58,60,62,64,66,68,70,72,74,76,78,-1,80,82,84,86,88,90,92,94,96,98,100,102,104,106,108,110,112,114,116,118,120,122,124,-1,-1,-1,-1,126,128,130,132,134,136,138,140,142,144,146,-1,148,150,152,154,156,158,160,162,164,166,168,170,172,-1,174,-1,176,178,180,182,184,186,-1,188,-1,190,-1,192,194,196,-1,198,-1,-1,200,202,204,-1,206,208,210,212,-1,-1,214,216,-1,-1,-1,-1,-1,-1,-1,-1,-1,-1,-1,-1,-1,-1,-1,-1,-1,-1,-1,-1,-1,-1,-1,-1,-1,-1,-1,-1,-1,-1,-1,-1,-1,-1,-1,-1,-1,-1,-1,-1,-1,-1,-1,-1,-1,-1,-1,-1,-1,-1,-1,-1,-1,-1,-1,-1,-1,-1,-1,-1,-1,-1,-1,-1,-1,-1,-1,-1,-1,-1,-1,-1,-1,-1,-1,-1,-1,-1,-1,-1,-1,-1,-1,-1,-1,-1,-1,-1,-1,-1,-1,-1],"split_conditions":[7.606197E4,1E0,3.0894718E0,5.4137016E4,6.62748E4,9.052266E4,3.7457473E4,1.3968769E5,3.0609424E0,6.5357008E4,5.794815E4,1E0,6.705256E4,1E0,3.7013793E0,4.9192645E4,5.6568746E4,9.755812E-1,6.6575445E4,4.153188E4,3.699008E4,8.560361E4,7.860666E4,8.622438E4,4.153188E4,1.94359E5,1E0,4.245547E0,1.1304986E5,9.1664516E4,1E0,3.484205E4,2.7181013E0,2.0271686E5,4.6434906E4,2.2343861E5,6.7816266E4,3.1187034E-3,3.7982864E0,-8.3909266E-2,2.3536775E5,2.2595775E0,6.7816266E4,3.8596625E4,6.2072125E4,3.680361E4,1.7465756E0,1.5151566E5,1.1543931E5,3.1517555E4,7.661792E4,1E0,2.3391225E0,-2.0874433E-1,2.4262156E4,1.02138086E5,1.0050172E5,7.453472E-2,1.16414445E5,1E0,1.1107468E5,4.66492E0,5.785669E4,-9.240953E-3,1.5400658E-2,-1.1144721E-2,-7.324416E-2,1.9575883E5,3.1092982E0,1E0,1.8808755E0,2.2018123E0,1.3272287E0,3.405497E4,9.601017E4,3.5251387E4,3.7490475E0,1.4794926E4,-1.0581931E-2,-9.225974E-2,6.2660395E4,3.391009E4,1.6997769E5,2.9547367E0,1.28735516E5,2.6890562E4,5.59865E-2,2.7181013E0,1.6451266E-2,4.5326594E4,2.6126912E0,3.110964E5,-3.847213E-2,-4.6456426E-2,8.16926E-2,1.4369367E5,1.7595221E0,-2.6249003E-2,2.8610275E0,4E0,1.6101851E0,5.9701513E-2,2.5390031E0,8.421258E-2,1.9831244E4,6.736639E-3,3.7499478E0,1.10135766E5,1.6704584E0,6.7135684E-2,1.07401E5,-3.7981965E-2,1.9245194E-2,-7.59885E-2,8.71938E4,9.230533E4,-4.179684E-2,2.1708546E0,6.90739E4,3.6142917E0,1.0191873E5,4.0381297E-2,-8.571638E-3,1.3978323E0,8.649709E4,7.86347E-3,-3.4167368E-2,4.7081377E-2,6.3258084E-3,-7.587349E-4,-3.7358273E-2,2.3103058E-2,-1.4180722E-2,1.00781005E-2,-3.423038E-2,-3.320307E-3,4.128623E-2,2.1427942E-2,7.503263E-2,5.001102E-2,2.3409016E-3,1.6863236E-2,-2.9206337E-2,2.7034095E-2,-1.118302E-2,1.1400327E-3,5.3888306E-2,3.3848982E-3,-7.767371E-2,-1.7746877E-2,-6.2454045E-2,-5.5590954E-2,-1.7722152E-3,-7.790074E-2,-1.1051106E-2,2.7202586E-2,-3.657496E-2,-6.338677E-2,1.9222617E-2,-3.332784E-2,1.9861432E-2,-6.019925E-2,4.117112E-3,4.2297125E-2,-1.3572364E-2,-4.6022784E-2,2.094453E-2,2.3347061E-2,-1.832938E-2,6.4360134E-2,1.6631834E-2,-1.250172E-2,3.3381432E-2,-8.284421E-3,2.5960958E-2,5.433556E-2,-3.080734E-4,3.4579658E-3,-1.5445387E-2,-7.1927942E-3,-4.5111477E-2,1.5142186E-2,-3.683407E-2,6.676077E-2,-8.781157E-3,4.1806035E-2,-4.4318993E-2,2.8968636E-2,-1.987798E-2,2.1153722E-2,7.237671E-2,7.959433E-2,1.2776077E-2,-5.288159E-2,1.6980104E-2,6.345463E-2,2.80288E-2,-1.02850925E-2,2.0188296E-2,-3.2120957E-3,-7.77471E-2,-1.27619095E-2,1.5560278E-2,-1.3868678E-2,3.2466043E-2,4.4434927E-2,3.4639204E-3,-1.7656168E-2,2.255542E-2,7.360146E-2,-1.0361328E-2,2.3728132E-2,-1.8949142E-2,-3.911259E-3,-4.8717316E-2,-1.2917898E-2,1.423408E-2],"split_indices":[0,1,4,0,2,0,2,5,4,0,0,1,3,1,4,3,3,4,0,2,2,2,3,3,2,5,1,4,3,0,1,10,4,5,0,5,3,14,19,0,5,4,3,3,3,11,8,5,10,2,3,1,4,14,2,10,0,14,10,1,10,4,2,0,0,0,0,5,4,13,8,8,8,11,11,3,4,2,0,14,3,2,3,4,3,3,14,4,14,3,4,5,0,14,0,11,4,14,8,13,8,0,4,0,2,0,19,0,8,0,10,0,0,14,0,0,0,8,2,19,16,0,0,8,0,0,0,0,0,0,0,0,0,0,0,0,0,0,0,0,0,0,0,0,0,0,0,0,0,0,0,0,0,0,0,0,0,0,0,0,0,0,0,0,0,0,0,0,0,0,0,0,0,0,0,0,0,0,0,0,0,0,0,0,0,0,0,0,0,0,0,0,0,0,0,0,0,0,0,0,0,0,0,0,0,0,0,0,0,0,0,0,0,0,0,0,0],"split_type":[0,0,0,0,0,0,0,0,0,0,0,0,0,0,0,0,0,0,0,0,0,0,0,0,0,0,0,0,0,0,0,0,0,0,0,0,0,0,0,0,0,0,0,0,0,0,0,0,0,0,0,0,0,0,0,0,0,0,0,0,0,0,0,0,0,0,0,0,0,0,0,0,0,0,0,0,0,0,0,0,0,0,0,0,0,0,0,0,0,0,0,0,0,0,0,0,0,0,0,0,0,0,0,0,0,0,0,0,0,0,0,0,0,0,0,0,0,0,0,0,0,0,0,0,0,0,0,0,0,0,0,0,0,0,0,0,0,0,0,0,0,0,0,0,0,0,0,0,0,0,0,0,0,0,0,0,0,0,0,0,0,0,0,0,0,0,0,0,0,0,0,0,0,0,0,0,0,0,0,0,0,0,0,0,0,0,0,0,0,0,0,0,0,0,0,0,0,0,0,0,0,0,0,0,0,0,0,0,0,0,0,0,0,0,0,0,0],"sum_hessian":[4.7123887E4,2.2875049E4,2.4248836E4,2.5997434E3,2.0275307E4,2.1275746E4,2.9730898E3,8.384872E2,1.7612562E3,1.895222E4,1.3230857E3,3.3893245E3,1.7886422E4,1.945297E3,1.0277928E3,2.2639655E2,6.1209064E2,1.4995728E3,2.6168344E2,1.5800286E4,3.1519348E3,6.512809E2,6.7180475E2,1.2155807E3,2.173744E3,1.4468445E4,3.4179766E3,2.2499199E2,1.720305E3,8.560716E2,1.7172122E2,2.2401806E1,2.0399474E2,2.548055E2,3.5728516E2,1.2377187E2,1.3758009E3,1.7017224E2,9.1511185E1,1.2968825E4,2.8314607E3,2.4187178E3,7.332171E2,3.6365573E2,2.8762515E2,5.19338E2,1.5246674E2,1.0413771E3,1.7420354E2,1.1544985E3,1.01924524E3,2.8793112E2,1.4180515E4,1.5521919E3,1.8657847E3,1.921924E2,3.279959E1,1.611519E3,1.0878599E2,1.9681226E2,6.5925934E2,5.1747604E1,1.1997361E2,7.749281E0,1.4652525E1,1.456478E1,1.8942996E2,9.45162E1,1.6028929E2,1.24236694E2,2.3304846E2,4.2223827E1,8.154805E1,9.585447E2,4.1725623E2,9.627004E1,7.390221E1,8.294648E1,8.564707E0,2.14534E3,6.861205E2,6.7475385E2,1.743964E3,3.9615073E2,3.3706638E2,7.641101E1,2.8724472E2,1.3764764E2,1.4997751E2,8.179998E1,4.3753802E2,8.811027E1,6.4356476E1,2.1751774E1,1.0196253E3,1.5202176E2,2.2181778E1,8.597503E2,2.9474823E2,8.139621E2,2.0528314E2,1.0542836E2,1.8250278E2,1.2502559E4,1.6779558E3,1.0594215E1,1.5415978E3,4.7365082E2,1.3921339E3,1.6967734E2,2.2515062E1,2.3980616E1,8.818976E0,1.5862227E3,2.5296389E1,7.566956E1,3.3116417E1,6.989356E1,1.269187E2,5.9107715E2,6.818217E1,4.3856422E1,7.891183E0,7.545641E1,4.45172E1,6.088186E1,3.363434E1,1.27463585E2,3.2825706E1,2.1301918E1,1.0293478E2,1.2729022E2,1.0575824E2,7.474445E0,3.4749382E1,1.124583E1,7.030222E1,9.7560165E1,8.609845E2,3.4067517E2,7.658106E1,9.17012E0,8.709992E1,5.4570442E1,1.933176E1,1.0173576E1,7.27729E1,1.2429907E1,2.1329102E3,2.2811601E2,4.5800446E2,6.3114935E2,4.3604454E1,1.7232028E3,2.076116E1,3.0209714E2,9.405359E1,2.924296E2,4.463678E1,5.303479E1,2.337622E1,2.6902798E2,1.8216742E1,8.947972E1,4.8167923E1,1.1298543E2,3.6992077E1,2.763834E1,5.416164E1,3.3189056E2,1.0564748E2,2.592445E1,6.2185814E1,8.152275E0,1.3599498E1,1.4343716E2,8.584593E0,7.935184E0,1.4246594E1,1.766515E2,6.830988E2,2.3699557E2,5.7752655E1,7.5839417E2,5.5567917E1,7.788787E1,1.2739527E2,1.084204E2,7.408237E1,1.8612367E2,1.4918322E3,1.5231201E3,1.8477568E1,2.4574484E2,2.2790596E2,6.77453E2,7.146809E2,9.065141E0,1.3449921E1,2.8396065E1,1.5578267E3,8.314845E0,1.6981544E1,2.6800749E1,4.8868816E1,5.8581696E1,1.1311864E1,9.515344E1,3.1765253E1,5.755059E2,1.5571213E1,4.340044E1,2.4781729E1,1.0764225E1,6.4692184E1,8.653852E0,3.5863346E1],"tree_param":{"num_deleted":"0","num_feature":"20","num_nodes":"217","size_leaf_vector":"1"}},{"base_weights":[-1.8291093E-2,-1.1379575E0,1.0430872E0,-1.3081002E0,3.1892934E-1,1.2555918E0,-4.4893813E-1,-1.4579406E0,-8.4910446E-1,-5.7651794E-1,5.6035036E-1,6.7526186E-1,1.4184649E0,-1.0561504E0,8.771238E-1,-1.5238507E0,-1.1586006E0,-1.116199E0,-2.6250705E-2,-7.9887635E-1,8.835997E-2,7.914204E-1,-8.5643095E-1,1.6672032E-1,1.2465407E0,4.617613E-2,1.4455874E0,1.306553E-1,-1.143933E0,1.0414193E0,-2.4635579E-1,-1.5255387E0,-1.3106485E-1,-1.4037191E0,-7.95387E-1,-6.4971334E-1,-1.3515918E0,3.2626113E-1,-9.5900506E-1,-7.954221E-2,-9.9314725E-1,-2.6972908E-1,4.438491E-1,1.9403279E-1,9.582969E-1,2.5318894E-1,-1.0050497E0,3.71258E-1,-7.1896493E-1,1.4223547E0,7.26458E-1,5.2719975E-1,-8.4512705E-1,1.0488187E0,1.5073947E0,-3.4135953E-1,6.428254E-1,-1.2011703E0,3.5276502E-1,3.5387307E-1,1.2212968E0,-5.870273E-1,2.4428026E-1,-7.887722E-2,-6.0384823E-3,8.4412815E-3,-1.5590487E-2,-2.0222887E-1,-7.299453E-2,-4.9332452E-1,-1.196346E0,-9.114303E-1,-1.1925102E-1,-1.0979624E0,-7.5529195E-2,-1.1590019E-1,6.507428E-1,2.4349466E-2,-1.0798762E0,1.5691689E-1,-1.8234868E-1,-1.0614514E0,1.584944E-2,2.395442E-1,-4.7174567E-1,-3.2778885E-2,5.5567676E-1,4.290303E-1,-4.4893888E-1,9.852752E-1,-1.4074704E-1,-4.916857E-3,2.0886047E-2,-1.0885413E0,8.035542E-2,-1.9209826E-1,7.566816E-1,-9.249053E-2,-1.276415E0,2.0899245E-1,1.434482E0,9.153127E-1,-2.0660074E-1,6.625735E-1,-2.6863694E-1,-6.607428E-2,2.3878288E-2,1.1386759E0,-1.0923283E-1,1.5128863E0,1.7528811E-1,8.532155E-3,-4.5863226E-1,7.560463E-1,-4.0730354E-3,-1.4094322E0,-8.833042E-1,5.969606E-1,-1.412369E-2,5.3591895E-1,-1.3814487E-1,-1.0490797E-2,1.2649318E0,6.2250245E-2,-4.3200366E-2,-7.697747E-3,3.8490534E-1,-1.402297E-2,1.908814E-3,-5.0486084E-2,-1.6325876E-2,1.5040565E-3,-6.292342E-2,1.0146559E-2,-4.986822E-2,-2.1064192E-2,3.164592E-2,-5.8234446E-2,2.4397323E-4,1.4132762E-2,-3.4448262E-2,4.4991393E-2,-7.867972E-3,1.8053623E-2,-2.0557957E-2,-9.364032E-3,-6.2132906E-2,-6.066471E-3,1.4737364E-2,7.412306E-3,-1.4233152E-2,3.1333494E-3,-5.6934156E-2,7.4141896E-3,-6.7900605E-3,1.5713913E-2,-7.093218E-4,3.1758456E-3,-2.9010769E-2,-1.3172998E-2,1.1042885E-2,3.2180768E-2,1.0938788E-3,-8.554451E-3,3.302774E-2,-3.377247E-2,8.3367545E-3,2.5337989E-2,5.5831324E-2,5.321178E-3,-1.3844568E-2,-4.4982275E-4,-5.883325E-2,-6.314538E-3,1.0907062E-2,7.5635774E-4,-3.3157613E-2,-3.728315E-2,4.5830112E-2,1.7313903E-2,-3.1405956E-2,-7.278224E-2,9.063038E-3,-3.8405024E-3,1.6971916E-2,7.439533E-2,4.087556E-3,1.4052665E-2,5.7203766E-2,2.3906324E-2,-4.1353453E-2,-2.3491792E-3,4.4196766E-2,-2.577325E-2,9.903606E-3,2.2497756E-2,6.5352544E-2,1.8375352E-2,-3.6947913E-2,8.006116E-2,6.958643E-2,-1.8803852E-2,2.9527212E-2,2.6624617E-3,-2.7707068E-2,4.1843697E-2,4.6099434E-3,-7.4274465E-2,5.6057847E-3,-5.34976E-2,1.2739833E-2,-9.769532E-3,3.9787013E-2,-6.39712E-3,3.9517134E-2,4.3846457E-3,-1.926407E-2,6.868749E-2,7.605496E-3,1.5210034E-2,-1.0906729E-2,-2.1701169E-3,2.4981143E-2],"categories":[],"categories_nodes":[],"categories_segments":[],"categories_sizes":[],"default_left":[0,0,0,0,0,0,0,0,0,0,0,0,0,0,0,0,0,0,0,0,0,0,0,0,0,0,0,0,0,0,0,0,0,0,0,0,0,0,0,0,0,0,0,0,0,0,0,0,0,0,0,0,0,0,0,0,0,0,0,0,0,0,0,0,0,0,0,0,0,0,0,0,0,0,0,0,0,0,0,0,0,0,0,0,0,0,0,0,0,0,0,0,0,0,0,0,0,0,0,0,0,0,0,0,0,0,0,0,0,0,0,0,0,0,0,0,0,0,0,0,0,0,0,0,0,0,0,0,0,0,0,0,0,0,0,0,0,0,0,0,0,0,0,0,0,0,0,0,0,0,0,0,0,0,0,0,0,0,0,0,0,0,0,0,0,0,0,0,0,0,0,0,0,0,0,0,0,0,0,0,0,0,0,0,0,0,0,0,0,0,0,0,0,0,0,0,0,0,0,0,0,0,0,0,0,0,0,0,0,0,0,0,0,0,0,0,0,0,0,0,0,0,0],"id":5,"left_children":[1,3,5,7,9,11,13,15,17,19,21,23,25,27,29,31,33,35,37,39,41,43,45,47,49,51,53,55,57,59,61,63,65,67,69,71,73,75,77,79,81,83,85,87,89,91,93,95,97,99,101,103,105,107,109,111,113,115,117,119,121,123,125,-1,-1,-1,-1,127,-1,129,131,133,135,137,-1,139,141,143,145,147,149,151,153,155,157,159,161,163,165,167,169,-1,-1,171,173,175,177,179,181,183,185,187,189,191,193,-1,-1,195,197,199,201,-1,203,205,-1,207,209,211,-1,213,215,-1,217,219,-1,-1,221,-1,-1,-1,-1,-1,-1,-1,-1,-1,-1,-1,-1,-1,-1,-1,-1,-1,-1,-1,-1,-1,-1,-1,-1,-1,-1,-1,-1,-1,-1,-1,-1,-1,-1,-1,-1,-1,-1,-1,-1,-1,-1,-1,-1,-1,-1,-1,-1,-1,-1,-1,-1,-1,-1,-1,-1,-1,-1,-1,-1,-1,-1,-1,-1,-1,-1,-1,-1,-1,-1,-1,-1,-1,-1,-1,-1,-1,-1,-1,-1,-1,-1,-1,-1,-1,-1,-1,-1,-1,-1,-1,-1,-1,-1,-1,-1],"loss_changes":[5.592635E4,5.6911934E3,7.6796035E3,1.3678672E3,5.349526E2,1.9664922E3,2.477956E3,2.4290625E2,1.1267949E3,8.1038635E1,6.5398804E2,1.3590125E3,6.113867E2,2.2388452E2,1.884986E2,2.2507812E1,2.218252E2,3.9484326E2,4.360117E2,5.3410583E1,2.508877E1,1.6041211E2,5.6110184E1,4.6722418E2,1.6617358E2,1.6783444E2,3.4164453E2,5.009154E1,1.8245386E2,9.080859E1,3.0412966E1,1.43671875E1,4.3800726E0,8.746338E0,1.3204425E2,1.8584302E2,1.5437988E1,1.4096411E2,4.411154E1,3.986522E0,2.2179565E1,1.4569651E1,5.7299023E0,6.847725E1,4.3342896E1,4.575344E0,2.6581055E1,4.5593808E2,1.6566234E2,1.3363037E1,1.1741504E2,3.334562E1,9.870747E1,2.4294019E2,9.255469E1,9.405106E0,9.936737E0,8.2187256E1,2.0790154E1,2.2833654E1,5.017578E1,1.7984642E1,6.793645E0,0E0,0E0,0E0,0E0,1.2302871E0,0E0,5.597795E1,1.4886902E1,6.076654E1,1.12335464E2,2.9474243E1,0E0,1.0020137E2,1.03819E2,1.4942072E1,2.8220337E1,3.1323235E0,4.4630327E0,1.5691254E1,1.6704458E0,1.002475E0,5.30439E0,4.6805816E0,2.3941746E0,4.333112E1,1.9456207E1,4.1676025E1,2.8643005E0,0E0,0E0,1.2864746E1,2.2425058E0,8.1323135E1,2.6122125E2,6.575128E1,5.746588E1,2.763349E0,7.867676E0,5.4928223E1,6.618722E1,3.2150703E1,9.8187275E0,0E0,0E0,1.7009619E2,6.425356E1,1.2041016E1,2.7801607E1,0E0,4.993038E0,5.999527E-1,0E0,5.187451E1,1.5373444E2,1.6222681E1,0E0,2.9304947E1,5.7401605E0,0E0,4.003247E1,5.9651217E0,0E0,0E0,3.8061466E0,0E0,0E0,0E0,0E0,0E0,0E0,0E0,0E0,0E0,0E0,0E0,0E0,0E0,0E0,0E0,0E0,0E0,0E0,0E0,0E0,0E0,0E0,0E0,0E0,0E0,0E0,0E0,0E0,0E0,0E0,0E0,0E0,0E0,0E0,0E0,0E0,0E0,0E0,0E0,0E0,0E0,0E0,0E0,0E0,0E0,0E0,0E0,0E0,0E0,0E0,0E0,0E0,0E0,0E0,0E0,0E0,0E0,0E0,0E0,0E0,0E0,0E0,0E0,0E0,0E0,0E0,0E0,0E0,0E0,0E0,0E0,0E0,0E0,0E0,0E0,0E0,0E0,0E0,0E0,0E0,0E0,0E0,0E0,0E0,0E0,0E0,0E0,0E0,0E0,0E0,0E0,0E0,0E0,0E0,0E0,0E0],"parents":[2147483647,0,0,1,1,2,2,3,3,4,4,5,5,6,6,7,7,8,8,9,9,10,10,11,11,12,12,13,13,14,14,15,15,16,16,17,17,18,18,19,19,20,20,21,21,22,22,23,23,24,24,25,25,26,26,27,27,28,28,29,29,30,30,31,31,32,32,33,33,34,34,35,35,36,36,37,37,38,38,39,39,40,40,41,41,42,42,43,43,44,44,45,45,46,46,47,47,48,48,49,49,50,50,51,51,52,52,53,53,54,54,55,55,56,56,57,57,58,58,59,59,60,60,61,61,62,62,67,67,69,69,70,70,71,71,72,72,73,73,75,75,76,76,77,77,78,78,79,79,80,80,81,81,82,82,83,83,84,84,85,85,86,86,87,87,88,88,89,89,90,90,93,93,94,94,95,95,96,96,97,97,98,98,99,99,100,100,101,101,102,102,103,103,104,104,107,107,108,108,109,109,110,110,112,112,113,113,115,115,116,116,117,117,119,119,120,120,122,122,123,123,126,126],"right_children":[2,4,6,8,10,12,14,16,18,20,22,24,26,28,30,32,34,36,38,40,42,44,46,48,50,52,54,56,58,60,62,64,66,68,70,72,74,76,78,80,82,84,86,88,90,92,94,96,98,100,102,104,106,108,110,112,114,116,118,120,122,124,126,-1,-1,-1,-1,128,-1,130,132,134,136,138,-1,140,142,144,146,148,150,152,154,156,158,160,162,164,166,168,170,-1,-1,172,174,176,178,180,182,184,186,188,190,192,194,-1,-1,196,198,200,202,-1,204,206,-1,208,210,212,-1,214,216,-1,218,220,-1,-1,222,-1,-1,-1,-1,-1,-1,-1,-1,-1,-1,-1,-1,-1,-1,-1,-1,-1,-1,-1,-1,-1,-1,-1,-1,-1,-1,-1,-1,-1,-1,-1,-1,-1,-1,-1,-1,-1,-1,-1,-1,-1,-1,-1,-1,-1,-1,-1,-1,-1,-1,-1,-1,-1,-1,-1,-1,-1,-1,-1,-1,-1,-1,-1,-1,-1,-1,-1,-1,-1,-1,-1,-1,-1,-1,-1,-1,-1,-1,-1,-1,-1,-1,-1,-1,-1,-1,-1,-1,-1,-1,-1,-1,-1,-1,-1,-1],"split_conditions":[7.606197E4,6.384268E4,3.0894718E0,6.2146094E4,5.0074125E4,3.1066791E4,4.007099E4,3.974215E4,3.8476066E4,9.8922375E4,1.01000375E5,1.1533093E5,3.737469E4,-4.013008E-2,1.1701012E5,1.5921466E-1,5.109339E4,2.4433382E0,3.0818233E0,4.6348184E4,4.6609723E4,5.6062125E4,-2.9782513E-2,1.026358E5,2.1082935E0,9.681451E4,9.1664516E4,1.2091498E5,7.453472E-2,9.1664516E4,5.8329043E4,1.8141705E-1,2.9923635E0,-8.453869E-2,2.8734684E0,2.588707E4,3.0339866E0,6.736112E4,-2.9904509E-2,1.5439024E0,4.1354403E-2,1.7360156E0,-2.793327E-2,7.76615E4,1.8922442E5,2.7026103E0,7.1620555E4,8.775426E4,3.2275023E0,4.563278E4,1.9813396E0,3.2166507E0,1.0873729E5,1.01794695E5,4.125283E0,-2.570609E-2,1.1021367E5,3.156192E0,3.5208197E0,9.529224E4,4.262702E-1,3.4909058E0,2.0037568E0,-7.887722E-2,-6.0384823E-3,8.4412815E-3,-1.5590487E-2,2.349117E0,-7.299453E-2,-1.6076053E0,5.627827E-1,-7.3795184E-2,7.1620555E4,3.699008E4,-7.5529195E-2,6.6138875E4,1.1060548E0,2.3768762E-2,1.2387992E0,3.3742133E4,-4.548204E-2,6.3277906E-1,2.9839312E-3,-9.361646E-3,-2.793327E-2,4.3421984E4,2.9088135E0,7.373079E4,1.0356675E5,4.0968707E4,3.8751159E0,-4.916857E-3,2.0886047E-2,-4.5544293E-2,2.6524484E0,2.4574704E0,4.178751E4,1.167656E5,2.4058336E4,2.0642129E4,3.992096E0,4.076636E4,2.7181013E0,2.02055E0,8.4372375E4,-6.607428E-2,2.3878288E-2,3.8818066E4,1.06565766E5,2.1650894E0,4.838801E4,8.532155E-3,1.15539375E4,1.25054805E5,-4.0730354E-3,3.754781E4,1.4680789E5,3.569335E4,-1.412369E-2,8.898915E4,2.1228282E0,-1.0490797E-2,3.853275E0,-1.00960836E-1,-4.3200366E-2,-7.697747E-3,9.1664516E4,-1.402297E-2,1.908814E-3,-5.0486084E-2,-1.6325876E-2,1.5040565E-3,-6.292342E-2,1.0146559E-2,-4.986822E-2,-2.1064192E-2,3.164592E-2,-5.8234446E-2,2.4397323E-4,1.4132762E-2,-3.4448262E-2,4.4991393E-2,-7.867972E-3,1.8053623E-2,-2.0557957E-2,-9.364032E-3,-6.2132906E-2,-6.066471E-3,1.4737364E-2,7.412306E-3,-1.4233152E-2,3.1333494E-3,-5.6934156E-2,7.4141896E-3,-6.7900605E-3,1.5713913E-2,-7.093218E-4,3.1758456E-3,-2.9010769E-2,-1.3172998E-2,1.1042885E-2,3.2180768E-2,1.0938788E-3,-8.554451E-3,3.302774E-2,-3.377247E-2,8.3367545E-3,2.5337989E-2,5.5831324E-2,5.321178E-3,-1.3844568E-2,-4.4982275E-4,-5.883325E-2,-6.314538E-3,1.0907062E-2,7.5635774E-4,-3.3157613E-2,-3.728315E-2,4.5830112E-2,1.7313903E-2,-3.1405956E-2,-7.278224E-2,9.063038E-3,-3.8405024E-3,1.6971916E-2,7.439533E-2,4.087556E-3,1.4052665E-2,5.7203766E-2,2.3906324E-2,-4.1353453E-2,-2.3491792E-3,4.4196766E-2,-2.577325E-2,9.903606E-3,2.2497756E-2,6.5352544E-2,1.8375352E-2,-3.6947913E-2,8.006116E-2,6.958643E-2,-1.8803852E-2,2.9527212E-2,2.6624617E-3,-2.7707068E-2,4.1843697E-2,4.6099434E-3,-7.4274465E-2,5.6057847E-3,-5.34976E-2,1.2739833E-2,-9.769532E-3,3.9787013E-2,-6.39712E-3,3.9517134E-2,4.3846457E-3,-1.926407E-2,6.868749E-2,7.605496E-3,1.5210034E-2,-1.0906729E-2,-2.1701169E-3,2.4981143E-2],"split_indices":[0,2,4,0,0,2,2,2,2,2,6,0,6,14,10,14,0,4,4,11,0,0,18,6,4,16,0,0,14,0,2,18,17,14,4,2,4,0,14,19,14,4,14,16,10,17,0,0,19,6,8,17,10,6,19,18,10,4,17,11,8,4,8,0,0,0,0,19,0,15,8,14,0,2,0,6,15,18,8,10,18,8,18,18,14,16,17,2,2,11,17,0,0,14,19,4,6,6,2,2,19,16,4,8,0,0,0,2,10,4,2,0,2,11,0,2,0,16,0,6,8,0,4,15,0,0,0,0,0,0,0,0,0,0,0,0,0,0,0,0,0,0,0,0,0,0,0,0,0,0,0,0,0,0,0,0,0,0,0,0,0,0,0,0,0,0,0,0,0,0,0,0,0,0,0,0,0,0,0,0,0,0,0,0,0,0,0,0,0,0,0,0,0,0,0,0,0,0,0,0,0,0,0,0,0,0,0,0,0,0,0,0,0,0,0,0,0,0,0,0,0,0,0],"split_type":[0,0,0,0,0,0,0,0,0,0,0,0,0,0,0,0,0,0,0,0,0,0,0,0,0,0,0,0,0,0,0,0,0,0,0,0,0,0,0,0,0,0,0,0,0,0,0,0,0,0,0,0,0,0,0,0,0,0,0,0,0,0,0,0,0,0,0,0,0,0,0,0,0,0,0,0,0,0,0,0,0,0,0,0,0,0,0,0,0,0,0,0,0,0,0,0,0,0,0,0,0,0,0,0,0,0,0,0,0,0,0,0,0,0,0,0,0,0,0,0,0,0,0,0,0,0,0,0,0,0,0,0,0,0,0,0,0,0,0,0,0,0,0,0,0,0,0,0,0,0,0,0,0,0,0,0,0,0,0,0,0,0,0,0,0,0,0,0,0,0,0,0,0,0,0,0,0,0,0,0,0,0,0,0,0,0,0,0,0,0,0,0,0,0,0,0,0,0,0,0,0,0,0,0,0,0,0,0,0,0,0,0,0,0,0,0,0,0,0,0,0,0,0],"sum_hessian":[4.6991273E4,2.2866502E4,2.4124771E4,2.0478465E4,2.3880376E3,2.112194E4,3.0028323E3,1.5381601E4,5.096864E3,4.9688858E2,1.891149E3,4.6680044E3,1.6453934E4,2.0645315E3,9.3830066E2,1.2489651E4,2.8919492E3,3.8385276E3,1.2583363E3,3.6711957E2,1.2976903E2,1.6391285E3,2.5202057E2,2.4933176E3,2.174687E3,3.2071683E2,1.6133217E4,1.4101997E2,1.9235116E3,8.208023E2,1.1749839E2,1.24712295E4,1.8421738E1,1.6673418E3,1.2246075E3,1.3310975E3,2.50743E3,9.29581E2,3.2875534E2,8.846288E1,2.7865668E2,6.881715E1,6.095188E1,3.742856E2,1.2648429E3,2.6884338E1,2.2513623E2,2.0419141E3,4.5140353E2,1.5802845E3,5.9440247E2,2.1750488E2,1.0321194E2,2.2584731E3,1.3874744E4,7.940758E1,6.161239E1,1.8592594E3,6.425222E1,1.9155708E2,6.292452E2,6.532503E1,5.2173363E1,1.2458003E4,1.3227203E1,7.3050027E0,1.11167345E1,1.8623753E1,1.648718E3,7.4256964E2,4.820379E2,8.7465076E2,4.564468E2,8.751857E2,1.6322444E3,4.028836E2,5.266974E2,3.901856E1,2.897368E2,2.1272614E1,6.719027E1,2.5930005E2,1.9356625E1,1.771431E1,5.1102833E1,1.6242878E1,4.4709003E1,2.8255826E2,9.1727356E1,1.238044E3,2.6798893E1,1.20148115E1,1.4869528E1,2.0896242E2,1.6173815E1,8.365571E2,1.2053569E3,2.3158838E2,2.1981516E2,2.1898245E1,1.5583864E3,4.948941E2,9.950837E1,1.9085036E2,2.6654524E1,7.806381E1,2.5148119E1,2.096388E3,1.6208511E2,1.3813091E4,6.165279E1,1.2266107E1,6.714147E1,5.182844E1,9.783948E0,1.0513153E3,8.079441E2,4.738774E1,1.6864475E1,1.375638E2,5.3993294E1,1.4936255E1,6.1430896E2,2.5331366E1,3.9993664E1,1.3197791E1,3.897557E1,1.0817988E1,7.8057632E0,1.5718782E2,5.853818E2,8.126321E0,4.7391156E2,3.6244617E1,8.384061E2,3.384124E2,1.1803441E2,8.518637E2,2.3322025E1,2.4625296E2,1.5663065E2,4.110989E2,1.15598495E2,2.542674E1,1.3591819E1,4.5142498E1,2.4459427E2,7.719132E0,1.3553481E1,1.076928E1,5.642099E1,8.440304E0,2.5085974E2,1.0845562E1,8.511064E0,8.562407E0,9.151904E0,8.939409E0,4.2163425E1,7.9181013E0,8.324778E0,3.462038E1,1.0088622E1,7.573326E1,2.06825E2,6.68388E1,2.4888557E1,2.3447577E2,1.00356824E3,1.14556265E1,1.5343266E1,1.1092309E1,1.978701E2,7.2319574E0,8.941856E0,5.960777E2,2.4047942E2,8.494106E1,1.1204159E3,1.3320436E2,9.838401E1,2.0239873E2,1.7416433E1,1.0386019E1,1.1512226E1,1.5499603E3,8.4259205E0,1.32973E2,3.619211E2,5.03805E1,4.912787E1,4.653469E1,1.4431567E2,1.5833121E1,1.0821403E1,3.425821E2,1.7538059E3,9.982241E1,6.2262707E1,1.1073544E4,2.7395479E3,2.7309822E1,3.4342968E1,1.041042E1,5.673105E1,4.106685E1,1.0761591E1,1.0339526E3,1.7362572E1,7.1460455E2,9.3339554E1,7.9761147E0,3.941163E1,3.954445E1,9.801935E1,3.9044243E1,1.4949052E1,5.7455646E2,3.9752495E1,1.225461E1,1.3076756E1,1.1050617E1,2.7924953E1],"tree_param":{"num_deleted":"0","num_feature":"20","num_nodes":"223","size_leaf_vector":"1"}},{"base_weights":[-1.064428E-2,-9.9095976E-1,9.225896E-1,8.5446954E-1,-1.2555951E0,1.2216933E0,1.1913119E-1,-6.1845374E-1,1.0955867E0,-1.4382485E0,-8.1984663E-1,6.217806E-1,1.3610225E0,1.1174831E0,-4.1434798E-1,7.0346844E-1,-9.810338E-1,4.5011637E-1,1.2386851E0,-1.5085149E0,-1.2368081E0,-3.080474E-1,-1.3379774E0,1.2956126E0,2.2341536E-1,1.4164016E0,3.18785E-1,7.1416295E-1,1.377397E0,-8.217464E-1,1.3412073E-1,4.63075E-4,7.910489E-1,2.566714E-1,-1.1550363E0,6.320419E-1,-5.6890696E-1,-5.3425524E-2,1.2843467E0,4.258059E-3,-7.802673E-2,-9.4945604E-1,-1.4756429E0,-7.702291E-1,2.1209054E-1,-7.3015556E-2,-8.4590364E-1,1.3439645E0,-2.4705542E-2,-4.3646678E-1,6.387384E-1,1.0667249E0,1.4741281E0,-1.0824785E0,7.846365E-1,9.868158E-1,-2.256512E-1,1.3894131E0,-5.01087E-3,-3.93727E-1,-1.1311337E0,-4.4431245E-1,6.471058E-1,4.5533363E-2,1.3250884E-3,-1.6856477E-1,2.44826E-2,-2.9330386E-2,-1.2928184E0,7.455838E-1,-3.4691292E-1,-4.861708E-2,2.087731E-2,4.3052474E-1,-3.9488626E-1,1.3212786E0,-9.826579E-2,-1.2457616E0,-6.9991153E-1,-7.6625824E-2,-5.6474525E-3,-1.0634756E0,-4.7867432E-1,4.7209492E-1,-7.9204684E-1,-4.6009146E-2,-1.0370424E0,1.3880885E0,2.7033192E-1,-5.9564286E-1,2.8757653E-1,8.07843E-1,-6.420528E-1,6.2408036E-1,1.273177E0,1.4797623E0,1.4842752E-1,-3.0818675E-2,-6.658322E-2,1.0361216E0,-1.5670551E-1,1.0477201E0,2.606269E-1,3.9887297E-1,-6.23341E-1,6.944032E-3,7.2038494E-2,-8.3729523E-1,1.1690504E-1,-1.6151014E-1,-1.2881044E0,4.068032E-1,-7.389155E-1,1.0357338E0,5.318631E-2,-1.3996247E-2,3.7451815E-3,1.3492995E-2,-1.6348086E-2,-6.073963E-3,-6.9384865E-2,5.5193384E-3,4.631658E-2,4.037645E-3,-2.3023767E-2,-7.3525694E-4,2.6555607E-2,1.1903955E-2,-2.9740043E-2,6.942512E-2,-3.0317614E-3,1.3233796E-2,-2.1468079E-2,-4.295118E-3,-6.519222E-2,-2.670777E-2,-6.6891596E-2,-6.0884837E-2,-1.5845742E-2,-4.8110563E-2,-1.0810136E-2,-2.5141567E-2,3.1485505E-2,-5.7079904E-2,1.1289404E-2,-2.4388649E-2,2.4675982E-2,-5.7767443E-2,-2.859822E-3,2.8324515E-2,7.432563E-2,-1.4885133E-2,2.5209922E-2,-4.492318E-2,-1.3756266E-2,-4.036808E-3,2.479817E-2,1.6641764E-2,5.249272E-2,-1.0403046E-2,-4.4125494E-2,5.441475E-2,1.7223734E-2,1.1943875E-2,6.726594E-2,7.657062E-2,-1.02869875E-4,-2.2756042E-2,3.154412E-2,-1.2532642E-2,1.4040002E-2,6.018815E-2,8.201996E-3,3.1843096E-2,-2.9325306E-2,5.5314533E-2,-3.6797868E-3,-1.0658818E-2,2.0006131E-2,3.0165143E-2,-1.1893289E-2,1.851656E-2,-5.244033E-2,-4.7171414E-2,1.19534945E-2,1.9013852E-2,-1.8667238E-2,-2.1521978E-2,2.0559857E-2,-1.2207412E-2,-6.790776E-2,-8.394213E-4,4.0866796E-2,1.9014238E-3,-5.5694785E-2,3.171354E-2,6.466643E-2,3.257788E-2,-4.244704E-2],"categories":[],"categories_nodes":[],"categories_segments":[],"categories_sizes":[],"default_left":[0,0,0,0,0,0,0,0,0,0,0,0,0,0,0,0,0,0,0,0,0,0,0,0,0,0,0,0,0,0,0,0,0,0,0,0,0,0,0,0,0,0,0,0,0,0,0,0,0,0,0,0,0,0,0,0,0,0,0,0,0,0,0,0,0,0,0,0,0,0,0,0,0,0,0,0,0,0,0,0,0,0,0,0,0,0,0,0,0,0,0,0,0,0,0,0,0,0,0,0,0,0,0,0,0,0,0,0,0,0,0,0,0,0,0,0,0,0,0,0,0,0,0,0,0,0,0,0,0,0,0,0,0,0,0,0,0,0,0,0,0,0,0,0,0,0,0,0,0,0,0,0,0,0,0,0,0,0,0,0,0,0,0,0,0,0,0,0,0,0,0,0,0,0,0,0,0,0,0,0,0,0,0,0,0,0,0,0,0,0,0,0,0,0,0,0,0,0,0],"id":6,"left_children":[1,3,5,7,9,11,13,15,17,19,21,23,25,27,29,31,33,35,37,39,41,43,45,47,49,51,53,55,57,59,61,-1,63,65,67,69,71,73,75,-1,-1,77,79,81,83,-1,85,87,-1,89,91,93,95,97,99,101,103,105,-1,107,109,111,113,-1,-1,115,-1,117,119,121,123,-1,-1,125,127,129,131,133,135,-1,-1,137,139,141,143,145,147,149,151,153,155,157,159,161,163,165,167,169,-1,171,173,175,177,179,181,-1,-1,183,185,187,189,191,193,195,197,-1,-1,-1,-1,-1,-1,-1,-1,-1,-1,-1,-1,-1,-1,-1,-1,-1,-1,-1,-1,-1,-1,-1,-1,-1,-1,-1,-1,-1,-1,-1,-1,-1,-1,-1,-1,-1,-1,-1,-1,-1,-1,-1,-1,-1,-1,-1,-1,-1,-1,-1,-1,-1,-1,-1,-1,-1,-1,-1,-1,-1,-1,-1,-1,-1,-1,-1,-1,-1,-1,-1,-1,-1,-1,-1,-1,-1,-1,-1,-1,-1,-1,-1,-1],"loss_changes":[4.2325215E4,1.1056049E4,5.690791E3,1.0358018E3,1.5307754E3,1.4139824E3,3.4610017E3,2.267538E2,2.0805273E2,1.3157422E2,1.5537651E3,8.8073267E2,7.9147266E2,2.0299487E2,9.514211E2,6.522583E0,8.491937E1,1.053989E2,1.2010596E2,3.216797E1,2.1075537E2,7.316365E2,6.698047E1,1.27420654E2,5.927244E2,2.1327734E2,5.192619E2,2.5333423E2,2.83833E1,3.0742883E2,5.5515466E2,0E0,6.0159416E0,9.33806E0,4.6787872E1,5.8075012E1,4.7293304E1,2.265647E1,1.0298535E2,0E0,0E0,1.0377942E2,1.4843262E1,1.19691284E2,3.9102832E2,0E0,7.09523E1,4.39375E1,0E0,1.03027084E2,3.038344E2,1.5571509E2,7.676367E1,4.2394775E1,1.437027E2,2.367157E1,6.917205E1,1.7175293E0,0E0,2.4715619E2,2.0536658E2,2.3211745E2,2.2610153E2,0E0,0E0,1.9055971E0,0E0,8.648043E0,1.0763489E1,3.5892136E1,4.1284103E0,0E0,0E0,2.4275408E0,1.3366572E1,6.1075928E1,1.296518E1,1.1006836E1,9.2483215E1,0E0,0E0,5.4680847E1,9.9155594E1,1.6458008E2,1.0660332E2,3.635378E1,2.8231445E1,2.1279297E1,1.5880699E1,5.5280655E1,1.3629799E1,1.0808606E2,1.0221642E1,7.5888916E1,2.958252E1,3.8396484E1,3.283434E1,6.6841536E0,0E0,4.6130554E1,6.0766853E1,2.0082642E1,8.929409E0,1.8161448E1,7.50938E1,0E0,0E0,5.4281525E1,6.8347046E1,3.9180386E1,2.2319458E1,4.1033E1,1.7737527E2,2.7570374E1,2.337893E2,0E0,0E0,0E0,0E0,0E0,0E0,0E0,0E0,0E0,0E0,0E0,0E0,0E0,0E0,0E0,0E0,0E0,0E0,0E0,0E0,0E0,0E0,0E0,0E0,0E0,0E0,0E0,0E0,0E0,0E0,0E0,0E0,0E0,0E0,0E0,0E0,0E0,0E0,0E0,0E0,0E0,0E0,0E0,0E0,0E0,0E0,0E0,0E0,0E0,0E0,0E0,0E0,0E0,0E0,0E0,0E0,0E0,0E0,0E0,0E0,0E0,0E0,0E0,0E0,0E0,0E0,0E0,0E0,0E0,0E0,0E0,0E0,0E0,0E0,0E0,0E0,0E0,0E0,0E0,0E0,0E0,0E0,0E0,0E0],"parents":[2147483647,0,0,1,1,2,2,3,3,4,4,5,5,6,6,7,7,8,8,9,9,10,10,11,11,12,12,13,13,14,14,15,15,16,16,17,17,18,18,19,19,20,20,21,21,22,22,23,23,24,24,25,25,26,26,27,27,28,28,29,29,30,30,32,32,33,33,34,34,35,35,36,36,37,37,38,38,41,41,42,42,43,43,44,44,46,46,47,47,49,49,50,50,51,51,52,52,53,53,54,54,55,55,56,56,57,57,59,59,60,60,61,61,62,62,65,65,67,67,68,68,69,69,70,70,73,73,74,74,75,75,76,76,77,77,78,78,81,81,82,82,83,83,84,84,85,85,86,86,87,87,88,88,89,89,90,90,91,91,92,92,93,93,94,94,95,95,96,96,97,97,99,99,100,100,101,101,102,102,103,103,104,104,107,107,108,108,109,109,110,110,111,111,112,112,113,113,114,114],"right_children":[2,4,6,8,10,12,14,16,18,20,22,24,26,28,30,32,34,36,38,40,42,44,46,48,50,52,54,56,58,60,62,-1,64,66,68,70,72,74,76,-1,-1,78,80,82,84,-1,86,88,-1,90,92,94,96,98,100,102,104,106,-1,108,110,112,114,-1,-1,116,-1,118,120,122,124,-1,-1,126,128,130,132,134,136,-1,-1,138,140,142,144,146,148,150,152,154,156,158,160,162,164,166,168,170,-1,172,174,176,178,180,182,-1,-1,184,186,188,190,192,194,196,198,-1,-1,-1,-1,-1,-1,-1,-1,-1,-1,-1,-1,-1,-1,-1,-1,-1,-1,-1,-1,-1,-1,-1,-1,-1,-1,-1,-1,-1,-1,-1,-1,-1,-1,-1,-1,-1,-1,-1,-1,-1,-1,-1,-1,-1,-1,-1,-1,-1,-1,-1,-1,-1,-1,-1,-1,-1,-1,-1,-1,-1,-1,-1,-1,-1,-1,-1,-1,-1,-1,-1,-1,-1,-1,-1,-1,-1,-1,-1,-1,-1,-1,-1,-1],"split_conditions":[2.4435055E5,1E0,7.021643E4,1.4614836E5,1.94359E5,2.4967334E4,1E0,1.4243175E-3,4.432374E4,1.6817206E5,6.5497754E4,1E0,3.6223085E0,2.9956043E4,2.9874562E4,1.238224E5,3.9365613E4,4.357406E4,2.040683E4,-2.0874433E-1,6.4519805E4,2.7029959E4,3.2424346E4,2.4271917E0,6.5011055E4,6.0577496E4,5.586927E4,8.620167E4,4.125283E0,1.6704584E0,3.4510112E5,4.63075E-4,1.2216357E0,2.0366527E-2,2.8667624E0,3.9241786E0,3.0680086E4,5.342373E4,1.4442369E5,4.258059E-3,-7.802673E-2,2.378156E4,1.4442369E5,5.476143E4,2.881881E0,-7.3015556E-2,7.348652E4,6.578225E4,-2.4705542E-2,3.9937334E5,3.6223085E0,3.1804094E4,2.3918104E0,1.9077231E0,4.3064866E0,1.8097433E5,1.9867499E0,-2.3328004E0,-5.01087E-3,1.14850875E5,7.63005E4,1.7927972E0,1.1021367E5,4.5533363E-2,1.3250884E-3,3.023068E0,2.44826E-2,7.078187E4,3.7698207E4,2.2026434E4,-9.973065E-3,-4.861708E-2,2.087731E-2,5.2712473E4,1.8046645E0,4.062503E0,1.0610352E5,8.330451E-1,4.34451E0,-7.6625824E-2,-5.6474525E-3,7.457635E4,2.3378107E4,1.6611859E0,2.2072656E5,2.1675328E5,1.1906592E5,4.0565324E4,2.6436456E5,2.5081785E0,2.1800053E0,3.0366794E5,3.0606682E0,1E0,1.4794258E4,4.125283E0,1.9610046E0,3.813171E4,-6.658322E-2,5.8876742E4,1E0,2.2118108E0,2.086457E4,1.2089746E5,1.0307737E5,6.944032E-3,7.2038494E-2,6.355417E-2,8.092303E4,1.1093506E5,-7.59885E-2,1.058174E5,6.992573E4,1.1662215E5,1.0133395E5,-1.3996247E-2,3.7451815E-3,1.3492995E-2,-1.6348086E-2,-6.073963E-3,-6.9384865E-2,5.5193384E-3,4.631658E-2,4.037645E-3,-2.3023767E-2,-7.3525694E-4,2.6555607E-2,1.1903955E-2,-2.9740043E-2,6.942512E-2,-3.0317614E-3,1.3233796E-2,-2.1468079E-2,-4.295118E-3,-6.519222E-2,-2.670777E-2,-6.6891596E-2,-6.0884837E-2,-1.5845742E-2,-4.8110563E-2,-1.0810136E-2,-2.5141567E-2,3.1485505E-2,-5.7079904E-2,1.1289404E-2,-2.4388649E-2,2.4675982E-2,-5.7767443E-2,-2.859822E-3,2.8324515E-2,7.432563E-2,-1.4885133E-2,2.5209922E-2,-4.492318E-2,-1.3756266E-2,-4.036808E-3,2.479817E-2,1.6641764E-2,5.249272E-2,-1.0403046E-2,-4.4125494E-2,5.441475E-2,1.7223734E-2,1.1943875E-2,6.726594E-2,7.657062E-2,-1.02869875E-4,-2.2756042E-2,3.154412E-2,-1.2532642E-2,1.4040002E-2,6.018815E-2,8.201996E-3,3.1843096E-2,-2.9325306E-2,5.5314533E-2,-3.6797868E-3,-1.0658818E-2,2.0006131E-2,3.0165143E-2,-1.1893289E-2,1.851656E-2,-5.244033E-2,-4.7171414E-2,1.19534945E-2,1.9013852E-2,-1.8667238E-2,-2.1521978E-2,2.0559857E-2,-1.2207412E-2,-6.790776E-2,-8.394213E-4,4.0866796E-2,1.9014238E-3,-5.5694785E-2,3.171354E-2,6.466643E-2,3.257788E-2,-4.244704E-2],"split_indices":[5,1,3,5,5,7,1,18,11,5,3,1,17,7,7,5,16,11,7,14,3,7,7,15,11,11,10,16,19,8,5,0,15,18,17,17,3,3,3,0,0,7,3,11,8,0,3,3,0,5,17,7,15,19,17,3,19,15,0,3,3,19,10,0,0,17,0,16,3,7,18,0,0,10,19,19,11,19,17,0,0,10,3,17,5,5,3,11,5,17,17,5,19,1,3,19,8,7,0,3,1,15,7,11,3,0,0,18,16,11,14,3,16,3,3,0,0,0,0,0,0,0,0,0,0,0,0,0,0,0,0,0,0,0,0,0,0,0,0,0,0,0,0,0,0,0,0,0,0,0,0,0,0,0,0,0,0,0,0,0,0,0,0,0,0,0,0,0,0,0,0,0,0,0,0,0,0,0,0,0,0,0,0,0,0,0,0,0,0,0,0,0,0,0,0,0,0,0,0],"split_type":[0,0,0,0,0,0,0,0,0,0,0,0,0,0,0,0,0,0,0,0,0,0,0,0,0,0,0,0,0,0,0,0,0,0,0,0,0,0,0,0,0,0,0,0,0,0,0,0,0,0,0,0,0,0,0,0,0,0,0,0,0,0,0,0,0,0,0,0,0,0,0,0,0,0,0,0,0,0,0,0,0,0,0,0,0,0,0,0,0,0,0,0,0,0,0,0,0,0,0,0,0,0,0,0,0,0,0,0,0,0,0,0,0,0,0,0,0,0,0,0,0,0,0,0,0,0,0,0,0,0,0,0,0,0,0,0,0,0,0,0,0,0,0,0,0,0,0,0,0,0,0,0,0,0,0,0,0,0,0,0,0,0,0,0,0,0,0,0,0,0,0,0,0,0,0,0,0,0,0,0,0,0,0,0,0,0,0,0,0,0,0,0,0,0,0,0,0,0,0],"sum_hessian":[4.6194598E4,2.2527959E4,2.3666639E4,2.8156624E3,1.9712297E4,1.723318E4,6.43346E3,3.884468E2,2.4272156E3,1.3833758E4,5.8785386E3,3.2837556E3,1.3949424E4,2.227306E3,4.2061543E3,7.659033E1,3.1185648E2,4.6655542E2,1.96066E3,1.0089306E4,3.7444526E3,2.985168E3,2.8933706E3,1.191018E3,2.0927378E3,1.3233794E4,7.156301E2,9.238077E2,1.3034984E3,2.4035386E3,1.8026156E3,1.2859722E1,6.373061E1,3.6406662E1,2.754498E2,4.0705847E2,5.9496933E1,6.6720726E1,1.8939393E3,9.195174E0,1.008011E4,1.7779436E3,1.966509E3,1.5718134E3,1.4133545E3,2.4531626E3,4.4020798E2,1.1675975E3,2.3420464E1,8.076863E2,1.2850515E3,1.9709008E3,1.1262893E4,1.6709464E2,5.4853546E2,7.147223E2,2.0908536E2,1.2949441E3,8.554215E0,1.041511E3,1.3620276E3,8.494425E2,9.531731E2,5.2307114E1,1.1423497E1,1.4934659E1,2.1472002E1,3.4626247E1,2.4082356E2,3.7216434E2,3.4894157E1,4.3863354E1,1.5633577E1,2.3857685E1,4.2863045E1,1.8461643E3,4.777499E1,7.495002E2,1.0284435E3,1.9528441E3,1.3664876E1,7.378399E2,8.339735E2,1.1372618E3,2.760927E2,9.320403E1,3.4700394E2,1.1117458E3,5.5851654E1,6.6716675E2,1.4051952E2,1.1464897E3,1.3856181E2,6.7125586E2,1.2996449E3,1.1211214E4,5.1679405E1,3.3938473E1,1.3315616E2,4.3013077E2,1.184047E2,6.4524567E2,6.947665E1,8.130372E1,1.2778164E2,8.899301E0,1.2860448E3,5.4547925E2,4.960317E2,1.9958167E2,1.1624459E3,2.1502275E2,6.3441974E2,5.605635E2,3.926096E2,7.468976E0,7.465683E0,1.8768291E1,1.5857955E1,1.460589E1,2.2621767E2,8.2440605E1,2.8972372E2,7.9388824E0,2.6955276E1,8.316987E0,1.5540697E1,7.473862E0,3.5389183E1,1.8174711E3,2.8693249E1,2.5722267E1,2.2052723E1,1.3134971E1,7.3636523E2,8.360939E2,1.9234956E2,6.237417E2,1.1409818E2,2.794402E2,5.545333E2,1.3142947E2,1.00583234E3,2.0836864E2,6.772407E1,5.327465E1,3.9929382E1,3.1607877E2,3.092516E1,8.640944E1,1.0253364E3,1.2510089E1,4.3341564E1,3.3322076E2,3.3394598E2,5.5544987E1,8.4974525E1,3.7046677E2,7.7602295E2,6.697968E1,7.158214E1,2.3433376E2,4.3692212E2,4.3362446E1,1.2562825E3,1.1193847E4,1.7366854E1,2.3438305E1,2.82411E1,2.4012718E1,9.9257555E0,3.6513535E2,6.499544E1,3.50735E1,8.33312E1,6.337626E2,1.1483082E1,1.0160129E1,5.931652E1,6.4755356E1,1.6548357E1,3.7280846E1,9.0500786E1,5.141007E2,3.1378538E1,3.304854E2,1.6554631E2,1.4317073E2,5.6410942E1,3.678752E1,1.1256583E3,1.1814874E2,9.6874016E1,2.0237466E2,4.3204507E2,2.3489476E2,3.256687E2,2.4234193E2,1.5026767E2],"tree_param":{"num_deleted":"0","num_feature":"20","num_nodes":"199","size_leaf_vector":"1"}},{"base_weights":[1.3834073E-2,-9.8832077E-1,1.0366567E0,6.6472024E-1,-1.226644E0,1.2130413E0,-4.023245E-1,-2.9586312E-1,8.880079E-1,-1.3793087E0,-5.472326E-1,5.6912273E-1,1.3252954E0,1.1546631E0,-8.534338E-1,-6.8052137E-1,6.693514E-2,1.0349818E0,1.5915059E-1,-7.5434156E-2,-1.0521482E0,-1.0127032E0,-2.1203032E-2,1.354384E0,1.2146731E-1,1.3427365E0,-6.092597E-1,1.2710891E0,-2.8848777E-2,-1.1342063E0,2.9483813E-1,-4.7416154E-2,-9.433901E-1,3.4467217E-1,-1.6489018E-1,3.591492E-1,1.131173E0,4.68113E-1,-2.631607E-1,-6.4104015E-1,-1.2787447E0,-7.151121E-1,-1.2109133E0,2.4842668E-1,-8.920956E-1,1.3777938E0,-4.0181756E-2,-3.716621E-1,5.4847556E-1,2.963477E-1,1.3606261E0,3.8834938E-1,-1.0593411E0,1.3075802E0,-4.841724E-3,-1.3756909E0,-7.332544E-1,6.769002E-1,-5.951151E-1,3.4588653E-1,-4.6485937E-1,1.1509422E-2,-1.047381E0,-1.080838E-1,5.1115644E-1,1.860827E-2,-2.7293128E-1,-4.946191E-1,6.833112E-1,4.2812997E-1,1.1946013E0,-2.7519004E-2,6.135391E-1,-5.815777E-1,3.032698E-1,-1.1204729E0,-3.9008656E-1,-3.3147747E-3,-1.2830966E0,-9.662959E-1,-3.2051712E-1,-1.2235166E0,-1.6645018E-3,5.858936E-2,5.860151E-1,1.9975518E-1,-1.0001465E0,-4.5522307E-3,1.4011185E0,-9.223383E-3,6.8307365E-3,-8.575003E-2,-1.0611457E0,-8.0994886E-1,7.254641E-1,-6.5156037E-1,7.828141E-1,1.4371363E0,1.1205806E0,5.329591E-1,-9.326737E-3,-6.1327882E-2,-5.103293E-2,1.3303039E0,6.767033E-3,-1.4059936E0,-2.6108531E-2,-8.5088557E-1,1.06725976E-1,-1.3104035E-1,8.148227E-1,1.753476E-1,-7.695552E-1,2.5577847E-2,-7.963468E-3,-2.9422583E-2,2.9391118E-3,-1.2097505E-2,-5.8631968E-2,1.181004E-2,-2.0080682E-2,3.2917522E-2,-1.8637935E-3,-2.1108871E-2,7.7668773E-3,-4.4158597E-2,9.335003E-3,-2.394061E-3,4.230315E-2,-1.7200345E-2,3.896094E-2,6.290642E-2,-1.2921296E-2,4.1651677E-2,-1.2087128E-2,4.786366E-3,-3.662827E-2,-1.9581808E-2,2.8416738E-2,-6.3714765E-2,-2.04554E-2,-3.5903297E-2,-1.3290845E-3,-6.645593E-2,-5.945025E-3,-5.366176E-2,-8.859366E-3,-4.988018E-3,-4.6861105E-2,-2.5200747E-2,-6.487783E-2,-1.1358874E-2,1.5421706E-2,-1.1670497E-2,3.378867E-2,-1.2865497E-2,2.3350751E-2,-4.5822016E-3,-5.3062014E-2,-1.610336E-2,1.6385837E-2,7.3075294E-2,1.34595735E-2,-3.1472735E-2,4.1673817E-3,1.2862824E-2,-5.9076604E-2,-4.9415972E-2,7.7189077E-3,4.3736476E-2,-5.6471885E-3,-4.955988E-2,1.1593183E-2,-3.99707E-3,4.3291517E-2,7.439787E-2,1.7157538E-2,7.5552136E-2,4.246039E-2,-4.667359E-4,3.3066593E-2,-1.1223645E-2,8.035414E-3,8.9605665E-3,6.958075E-2,-6.53267E-3,-7.316587E-2,1.1523398E-2,-1.4921746E-2,4.3904176E-3,-4.7679074E-2,2.2862287E-2,-2.458082E-2,6.8859085E-3,-1.9557012E-2,-7.081599E-3,4.9020726E-2,-3.3780183E-3,1.3619178E-2,-4.382292E-2,2.5540607E-3],"categories":[],"categories_nodes":[],"categories_segments":[],"categories_sizes":[],"default_left":[0,0,0,0,0,0,0,0,0,0,0,0,0,0,0,0,0,0,0,0,0,0,0,0,0,0,0,0,0,0,0,0,0,0,0,0,0,0,0,0,0,0,0,0,0,0,0,0,0,0,0,0,0,0,0,0,0,0,0,0,0,0,0,0,0,0,0,0,0,0,0,0,0,0,0,0,0,0,0,0,0,0,0,0,0,0,0,0,0,0,0,0,0,0,0,0,0,0,0,0,0,0,0,0,0,0,0,0,0,0,0,0,0,0,0,0,0,0,0,0,0,0,0,0,0,0,0,0,0,0,0,0,0,0,0,0,0,0,0,0,0,0,0,0,0,0,0,0,0,0,0,0,0,0,0,0,0,0,0,0,0,0,0,0,0,0,0,0,0,0,0,0,0,0,0,0,0,0,0,0,0,0,0,0,0,0,0,0,0,0,0,0,0,0,0,0,0,0,0,0,0],"id":7,"left_children":[1,3,5,7,9,11,13,15,17,19,21,23,25,27,29,31,33,35,37,-1,39,41,43,45,47,49,51,53,-1,55,57,59,61,63,65,67,69,71,73,75,77,79,81,83,85,87,89,91,93,95,97,99,101,103,-1,105,107,109,111,113,115,-1,117,119,121,-1,123,125,127,129,131,-1,133,135,137,139,141,-1,143,145,147,149,-1,151,153,155,157,159,161,-1,-1,163,165,167,169,171,173,175,177,179,-1,-1,181,183,-1,185,187,189,191,193,195,197,199,-1,-1,-1,-1,-1,-1,-1,-1,-1,-1,-1,-1,-1,-1,-1,-1,-1,-1,-1,-1,-1,-1,-1,-1,-1,-1,-1,-1,-1,-1,-1,-1,-1,-1,-1,-1,-1,-1,-1,-1,-1,-1,-1,-1,-1,-1,-1,-1,-1,-1,-1,-1,-1,-1,-1,-1,-1,-1,-1,-1,-1,-1,-1,-1,-1,-1,-1,-1,-1,-1,-1,-1,-1,-1,-1,-1,-1,-1,-1,-1,-1,-1,-1,-1,-1,-1,-1,-1],"loss_changes":[4.6120426E4,8.981789E3,5.6686953E3,6.281747E2,2.0353438E3,1.40825E3,1.7602372E3,8.118039E1,2.4608276E2,3.7486523E2,9.0622205E2,1.0512406E3,5.976719E2,1.3766748E2,6.3234143E2,4.504013E1,2.2905146E1,1.1266016E2,6.1089684E1,0E0,2.820005E2,8.583264E1,4.2434845E2,3.7449707E1,4.1834604E2,2.9923633E2,9.26775E1,3.1210815E1,0E0,1.1549011E2,1.5196092E2,2.506096E1,3.1862305E1,1.3912289E1,1.4794141E1,9.302849E1,5.765039E1,4.9752197E1,4.3306095E1,1.3567572E2,8.314941E0,7.5493286E1,1.5405151E1,8.737956E1,5.731128E1,3.4763428E1,2.0512774E0,1.7959865E2,2.7541895E2,1.6784372E2,2.4609766E2,9.892265E0,1.4588882E1,8.112915E0,0E0,3.6776123E1,6.821622E1,3.715207E1,2.3544903E1,8.689011E0,5.074582E0,0E0,4.013275E0,9.829258E0,9.236427E0,0E0,1.2818935E1,2.9910372E1,2.380577E1,5.6834408E1,6.1411377E1,0E0,4.6803055E1,1.4635155E1,2.356202E1,1.6738708E1,9.6696304E1,0E0,2.7023926E0,2.3404297E1,4.8236546E1,5.213501E0,0E0,6.3943565E1,3.2368042E1,1.1529995E1,6.5063477E0,8.6026745E0,3.1862793E0,0E0,0E0,6.2073265E1,3.885147E1,2.4449364E1,9.9913055E1,4.2334774E1,1.3197556E1,2.2552734E1,3.801172E2,4.396263E0,0E0,0E0,2.9170008E0,1.7191162E0,0E0,5.616211E0,5.8859015E0,4.1883545E1,2.9154728E1,6.568613E0,3.7827744E1,1.7487983E0,9.242065E0,0E0,0E0,0E0,0E0,0E0,0E0,0E0,0E0,0E0,0E0,0E0,0E0,0E0,0E0,0E0,0E0,0E0,0E0,0E0,0E0,0E0,0E0,0E0,0E0,0E0,0E0,0E0,0E0,0E0,0E0,0E0,0E0,0E0,0E0,0E0,0E0,0E0,0E0,0E0,0E0,0E0,0E0,0E0,0E0,0E0,0E0,0E0,0E0,0E0,0E0,0E0,0E0,0E0,0E0,0E0,0E0,0E0,0E0,0E0,0E0,0E0,0E0,0E0,0E0,0E0,0E0,0E0,0E0,0E0,0E0,0E0,0E0,0E0,0E0,0E0,0E0,0E0,0E0,0E0,0E0,0E0,0E0,0E0,0E0,0E0,0E0,0E0,0E0],"parents":[2147483647,0,0,1,1,2,2,3,3,4,4,5,5,6,6,7,7,8,8,9,9,10,10,11,11,12,12,13,13,14,14,15,15,16,16,17,17,18,18,20,20,21,21,22,22,23,23,24,24,25,25,26,26,27,27,29,29,30,30,31,31,32,32,33,33,34,34,35,35,36,36,37,37,38,38,39,39,40,40,41,41,42,42,43,43,44,44,45,45,46,46,47,47,48,48,49,49,50,50,51,51,52,52,53,53,55,55,56,56,57,57,58,58,59,59,60,60,62,62,63,63,64,64,66,66,67,67,68,68,69,69,70,70,72,72,73,73,74,74,75,75,76,76,78,78,79,79,80,80,81,81,83,83,84,84,85,85,86,86,87,87,88,88,91,91,92,92,93,93,94,94,95,95,96,96,97,97,98,98,99,99,102,102,103,103,105,105,106,106,107,107,108,108,109,109,110,110,111,111,112,112],"right_children":[2,4,6,8,10,12,14,16,18,20,22,24,26,28,30,32,34,36,38,-1,40,42,44,46,48,50,52,54,-1,56,58,60,62,64,66,68,70,72,74,76,78,80,82,84,86,88,90,92,94,96,98,100,102,104,-1,106,108,110,112,114,116,-1,118,120,122,-1,124,126,128,130,132,-1,134,136,138,140,142,-1,144,146,148,150,-1,152,154,156,158,160,162,-1,-1,164,166,168,170,172,174,176,178,180,-1,-1,182,184,-1,186,188,190,192,194,196,198,200,-1,-1,-1,-1,-1,-1,-1,-1,-1,-1,-1,-1,-1,-1,-1,-1,-1,-1,-1,-1,-1,-1,-1,-1,-1,-1,-1,-1,-1,-1,-1,-1,-1,-1,-1,-1,-1,-1,-1,-1,-1,-1,-1,-1,-1,-1,-1,-1,-1,-1,-1,-1,-1,-1,-1,-1,-1,-1,-1,-1,-1,-1,-1,-1,-1,-1,-1,-1,-1,-1,-1,-1,-1,-1,-1,-1,-1,-1,-1,-1,-1,-1,-1,-1,-1,-1,-1,-1],"split_conditions":[7.9671234E4,1E0,3.1131349E0,5.08352E4,2.474927E5,9.230533E4,1E0,2.0271686E5,3.0339866E0,6.3860617E4,5.9434504E4,1E0,4.4131117E0,2.4271917E0,3.3708516E5,7.4606775E-3,2.3210814E0,1.7023445E0,1.860633E0,-7.5434156E-2,